#pragma once
#include <cstdarg>
namespace Eloquent {
    namespace ML {
        namespace Port {
            class SVM {
                public:
                    /**
                    * Predict class for features vector
                    */
                    int predict(float *x) {
                        float kernels[2025] = { 0 };
                        float decisions[990] = { 0 };
                        int votes[45] = { 0 };
                        kernels[0] = compute_kernel(x,   164.0  , 0.0  , 0.0  , 0.0  , 0.0  , 0.0 );
                        kernels[1] = compute_kernel(x,   0.0  , 0.0  , 0.0  , 0.0  , 0.0  , 0.0 );
                        kernels[2] = compute_kernel(x,   0.0  , 0.0  , 0.0  , 0.0  , 0.0  , 0.0 );
                        kernels[3] = compute_kernel(x,   0.0  , 0.0  , 0.0  , 0.0  , 0.0  , 0.0 );
                        kernels[4] = compute_kernel(x,   0.0  , 0.0  , 0.0  , 0.0  , 0.0  , 0.0 );
                        kernels[5] = compute_kernel(x,   0.0  , 0.0  , 0.0  , 0.0  , 0.0  , 0.0 );
                        kernels[6] = compute_kernel(x,   0.0  , 0.0  , 0.0  , 0.0  , 0.0  , 0.0 );
                        kernels[7] = compute_kernel(x,   0.0  , 0.0  , 0.0  , 0.0  , 0.0  , 0.0 );
                        kernels[8] = compute_kernel(x,   0.0  , 0.0  , 0.0  , 0.0  , 0.0  , 0.0 );
                        kernels[9] = compute_kernel(x,   0.0  , 0.0  , 0.0  , 0.0  , 0.0  , 0.0 );
                        kernels[10] = compute_kernel(x,   0.0  , 0.0  , 0.0  , 0.0  , 0.0  , 0.0 );
                        kernels[11] = compute_kernel(x,   0.0  , 0.0  , 0.0  , 0.0  , 0.0  , 0.0 );
                        kernels[12] = compute_kernel(x,   0.0  , 0.0  , 0.0  , 0.0  , 0.0  , 0.0 );
                        kernels[13] = compute_kernel(x,   0.0  , 0.0  , 0.0  , 0.0  , 0.0  , 0.0 );
                        kernels[14] = compute_kernel(x,   0.0  , 0.0  , 0.0  , 0.0  , 0.0  , 0.0 );
                        kernels[15] = compute_kernel(x,   0.0  , 0.0  , 0.0  , 0.0  , 0.0  , 0.0 );
                        kernels[16] = compute_kernel(x,   0.0  , 0.0  , 0.0  , 0.0  , 0.0  , 0.0 );
                        kernels[17] = compute_kernel(x,   0.0  , 0.0  , 0.0  , 0.0  , 0.0  , 0.0 );
                        kernels[18] = compute_kernel(x,   0.0  , 0.0  , 0.0  , 0.0  , 0.0  , 0.0 );
                        kernels[19] = compute_kernel(x,   0.0  , 0.0  , 0.0  , 0.0  , 0.0  , 0.0 );
                        kernels[20] = compute_kernel(x,   0.0  , 0.0  , 0.0  , 0.0  , 0.0  , 0.0 );
                        kernels[21] = compute_kernel(x,   0.0  , 0.0  , 0.0  , 0.0  , 0.0  , 0.0 );
                        kernels[22] = compute_kernel(x,   0.0  , 0.0  , 0.0  , 0.0  , 0.0  , 0.0 );
                        kernels[23] = compute_kernel(x,   0.0  , 0.0  , 0.0  , 0.0  , 0.0  , 0.0 );
                        kernels[24] = compute_kernel(x,   0.0  , 0.0  , 0.0  , 0.0  , 0.0  , 0.0 );
                        kernels[25] = compute_kernel(x,   0.0  , 0.0  , 0.0  , 0.0  , 0.0  , 0.0 );
                        kernels[26] = compute_kernel(x,   0.0  , 0.0  , 0.0  , 0.0  , 0.0  , 0.0 );
                        kernels[27] = compute_kernel(x,   0.0  , 0.0  , 0.0  , 0.0  , 0.0  , 0.0 );
                        kernels[28] = compute_kernel(x,   0.0  , 0.0  , 0.0  , 0.0  , 0.0  , 0.0 );
                        kernels[29] = compute_kernel(x,   0.0  , 0.0  , 0.0  , 0.0  , 0.0  , 0.0 );
                        kernels[30] = compute_kernel(x,   0.0  , 0.0  , 0.0  , 0.0  , 0.0  , 0.0 );
                        kernels[31] = compute_kernel(x,   0.0  , 0.0  , 0.0  , 0.0  , 0.0  , 0.0 );
                        kernels[32] = compute_kernel(x,   0.0  , 0.0  , 0.0  , 0.0  , 0.0  , 0.0 );
                        kernels[33] = compute_kernel(x,   0.0  , 0.0  , 0.0  , 0.0  , 0.0  , 0.0 );
                        kernels[34] = compute_kernel(x,   0.0  , 0.0  , 0.0  , 0.0  , 0.0  , 0.0 );
                        kernels[35] = compute_kernel(x,   0.0  , 0.0  , 0.0  , 0.0  , 0.0  , 0.0 );
                        kernels[36] = compute_kernel(x,   0.0  , 0.0  , 0.0  , 0.0  , 0.0  , 0.0 );
                        kernels[37] = compute_kernel(x,   0.0  , 0.0  , 0.0  , 0.0  , 0.0  , 0.0 );
                        kernels[38] = compute_kernel(x,   0.0  , 0.0  , 0.0  , 0.0  , 0.0  , 0.0 );
                        kernels[39] = compute_kernel(x,   0.0  , 0.0  , 0.0  , 0.0  , 0.0  , 0.0 );
                        kernels[40] = compute_kernel(x,   0.0  , 0.0  , 0.0  , 0.0  , 0.0  , 0.0 );
                        kernels[41] = compute_kernel(x,   0.0  , 0.0  , 0.0  , 0.0  , 0.0  , 0.0 );
                        kernels[42] = compute_kernel(x,   0.0  , 0.0  , 0.0  , 0.0  , 0.0  , 0.0 );
                        kernels[43] = compute_kernel(x,   0.0  , 0.0  , 0.0  , 0.0  , 0.0  , 0.0 );
                        kernels[44] = compute_kernel(x,   0.0  , 0.0  , 0.0  , 0.0  , 0.0  , 0.0 );
                        kernels[45] = compute_kernel(x,   0.0  , 0.0  , 0.0  , 0.0  , 0.0  , 0.0 );
                        kernels[46] = compute_kernel(x,   128.0  , 23.0  , 0.0  , 0.0  , 0.0  , 0.0 );
                        kernels[47] = compute_kernel(x,   0.0  , 0.0  , 0.0  , 0.0  , 0.0  , 0.0 );
                        kernels[48] = compute_kernel(x,   0.0  , 0.0  , 0.0  , 0.0  , 0.0  , 0.0 );
                        kernels[49] = compute_kernel(x,   0.0  , 0.0  , 0.0  , 0.0  , 0.0  , 0.0 );
                        kernels[50] = compute_kernel(x,   0.0  , 0.0  , 0.0  , 0.0  , 0.0  , 0.0 );
                        kernels[51] = compute_kernel(x,   0.0  , 0.0  , 0.0  , 0.0  , 0.0  , 0.0 );
                        kernels[52] = compute_kernel(x,   0.0  , 0.0  , 0.0  , 0.0  , 0.0  , 0.0 );
                        kernels[53] = compute_kernel(x,   0.0  , 0.0  , 0.0  , 0.0  , 0.0  , 0.0 );
                        kernels[54] = compute_kernel(x,   0.0  , 0.0  , 0.0  , 0.0  , 0.0  , 0.0 );
                        kernels[55] = compute_kernel(x,   0.0  , 0.0  , 0.0  , 0.0  , 0.0  , 0.0 );
                        kernels[56] = compute_kernel(x,   0.0  , 0.0  , 0.0  , 0.0  , 0.0  , 0.0 );
                        kernels[57] = compute_kernel(x,   0.0  , 0.0  , 0.0  , 0.0  , 0.0  , 0.0 );
                        kernels[58] = compute_kernel(x,   0.0  , 0.0  , 0.0  , 0.0  , 0.0  , 0.0 );
                        kernels[59] = compute_kernel(x,   0.0  , 0.0  , 0.0  , 0.0  , 0.0  , 0.0 );
                        kernels[60] = compute_kernel(x,   0.0  , 0.0  , 0.0  , 0.0  , 0.0  , 0.0 );
                        kernels[61] = compute_kernel(x,   0.0  , 0.0  , 0.0  , 0.0  , 0.0  , 0.0 );
                        kernels[62] = compute_kernel(x,   0.0  , 0.0  , 0.0  , 0.0  , 0.0  , 0.0 );
                        kernels[63] = compute_kernel(x,   0.0  , 0.0  , 0.0  , 0.0  , 0.0  , 0.0 );
                        kernels[64] = compute_kernel(x,   0.0  , 0.0  , 0.0  , 0.0  , 0.0  , 0.0 );
                        kernels[65] = compute_kernel(x,   0.0  , 0.0  , 0.0  , 0.0  , 0.0  , 0.0 );
                        kernels[66] = compute_kernel(x,   0.0  , 0.0  , 0.0  , 0.0  , 0.0  , 0.0 );
                        kernels[67] = compute_kernel(x,   0.0  , 0.0  , 0.0  , 0.0  , 0.0  , 0.0 );
                        kernels[68] = compute_kernel(x,   0.0  , 0.0  , 0.0  , 0.0  , 0.0  , 0.0 );
                        kernels[69] = compute_kernel(x,   0.0  , 0.0  , 0.0  , 0.0  , 0.0  , 0.0 );
                        kernels[70] = compute_kernel(x,   0.0  , 0.0  , 0.0  , 0.0  , 0.0  , 0.0 );
                        kernels[71] = compute_kernel(x,   0.0  , 0.0  , 0.0  , 0.0  , 0.0  , 0.0 );
                        kernels[72] = compute_kernel(x,   0.0  , 0.0  , 0.0  , 0.0  , 0.0  , 0.0 );
                        kernels[73] = compute_kernel(x,   0.0  , 0.0  , 0.0  , 0.0  , 0.0  , 0.0 );
                        kernels[74] = compute_kernel(x,   0.0  , 0.0  , 0.0  , 0.0  , 0.0  , 0.0 );
                        kernels[75] = compute_kernel(x,   0.0  , 0.0  , 0.0  , 0.0  , 0.0  , 0.0 );
                        kernels[76] = compute_kernel(x,   0.0  , 0.0  , 0.0  , 0.0  , 0.0  , 0.0 );
                        kernels[77] = compute_kernel(x,   0.0  , 0.0  , 0.0  , 0.0  , 0.0  , 0.0 );
                        kernels[78] = compute_kernel(x,   0.0  , 0.0  , 0.0  , 0.0  , 0.0  , 0.0 );
                        kernels[79] = compute_kernel(x,   0.0  , 0.0  , 0.0  , 0.0  , 0.0  , 0.0 );
                        kernels[80] = compute_kernel(x,   0.0  , 0.0  , 0.0  , 0.0  , 0.0  , 0.0 );
                        kernels[81] = compute_kernel(x,   0.0  , 0.0  , 0.0  , 0.0  , 0.0  , 0.0 );
                        kernels[82] = compute_kernel(x,   0.0  , 0.0  , 0.0  , 0.0  , 0.0  , 0.0 );
                        kernels[83] = compute_kernel(x,   0.0  , 0.0  , 0.0  , 0.0  , 0.0  , 0.0 );
                        kernels[84] = compute_kernel(x,   0.0  , 0.0  , 0.0  , 0.0  , 0.0  , 0.0 );
                        kernels[85] = compute_kernel(x,   0.0  , 0.0  , 0.0  , 0.0  , 0.0  , 0.0 );
                        kernels[86] = compute_kernel(x,   0.0  , 0.0  , 0.0  , 0.0  , 0.0  , 0.0 );
                        kernels[87] = compute_kernel(x,   0.0  , 0.0  , 0.0  , 0.0  , 0.0  , 0.0 );
                        kernels[88] = compute_kernel(x,   0.0  , 0.0  , 0.0  , 0.0  , 0.0  , 0.0 );
                        kernels[89] = compute_kernel(x,   0.0  , 0.0  , 0.0  , 0.0  , 0.0  , 0.0 );
                        kernels[90] = compute_kernel(x,   0.0  , 0.0  , 0.0  , 0.0  , 0.0  , 0.0 );
                        kernels[91] = compute_kernel(x,   0.0  , 0.0  , 0.0  , 0.0  , 0.0  , 0.0 );
                        kernels[92] = compute_kernel(x,   129.0  , 36.0  , 3.0  , 0.0  , 0.0  , 0.0 );
                        kernels[93] = compute_kernel(x,   0.0  , 0.0  , 0.0  , 0.0  , 0.0  , 0.0 );
                        kernels[94] = compute_kernel(x,   0.0  , 0.0  , 0.0  , 0.0  , 0.0  , 0.0 );
                        kernels[95] = compute_kernel(x,   0.0  , 0.0  , 0.0  , 0.0  , 0.0  , 0.0 );
                        kernels[96] = compute_kernel(x,   0.0  , 0.0  , 0.0  , 0.0  , 0.0  , 0.0 );
                        kernels[97] = compute_kernel(x,   0.0  , 0.0  , 0.0  , 0.0  , 0.0  , 0.0 );
                        kernels[98] = compute_kernel(x,   0.0  , 0.0  , 0.0  , 0.0  , 0.0  , 0.0 );
                        kernels[99] = compute_kernel(x,   0.0  , 0.0  , 0.0  , 0.0  , 0.0  , 0.0 );
                        kernels[100] = compute_kernel(x,   0.0  , 0.0  , 0.0  , 0.0  , 0.0  , 0.0 );
                        kernels[101] = compute_kernel(x,   0.0  , 0.0  , 0.0  , 0.0  , 0.0  , 0.0 );
                        kernels[102] = compute_kernel(x,   0.0  , 0.0  , 0.0  , 0.0  , 0.0  , 0.0 );
                        kernels[103] = compute_kernel(x,   0.0  , 0.0  , 0.0  , 0.0  , 0.0  , 0.0 );
                        kernels[104] = compute_kernel(x,   0.0  , 0.0  , 0.0  , 0.0  , 0.0  , 0.0 );
                        kernels[105] = compute_kernel(x,   0.0  , 0.0  , 0.0  , 0.0  , 0.0  , 0.0 );
                        kernels[106] = compute_kernel(x,   0.0  , 0.0  , 0.0  , 0.0  , 0.0  , 0.0 );
                        kernels[107] = compute_kernel(x,   0.0  , 0.0  , 0.0  , 0.0  , 0.0  , 0.0 );
                        kernels[108] = compute_kernel(x,   0.0  , 0.0  , 0.0  , 0.0  , 0.0  , 0.0 );
                        kernels[109] = compute_kernel(x,   0.0  , 0.0  , 0.0  , 0.0  , 0.0  , 0.0 );
                        kernels[110] = compute_kernel(x,   0.0  , 0.0  , 0.0  , 0.0  , 0.0  , 0.0 );
                        kernels[111] = compute_kernel(x,   0.0  , 0.0  , 0.0  , 0.0  , 0.0  , 0.0 );
                        kernels[112] = compute_kernel(x,   0.0  , 0.0  , 0.0  , 0.0  , 0.0  , 0.0 );
                        kernels[113] = compute_kernel(x,   0.0  , 0.0  , 0.0  , 0.0  , 0.0  , 0.0 );
                        kernels[114] = compute_kernel(x,   0.0  , 0.0  , 0.0  , 0.0  , 0.0  , 0.0 );
                        kernels[115] = compute_kernel(x,   0.0  , 0.0  , 0.0  , 0.0  , 0.0  , 0.0 );
                        kernels[116] = compute_kernel(x,   0.0  , 0.0  , 0.0  , 0.0  , 0.0  , 0.0 );
                        kernels[117] = compute_kernel(x,   0.0  , 0.0  , 0.0  , 0.0  , 0.0  , 0.0 );
                        kernels[118] = compute_kernel(x,   0.0  , 0.0  , 0.0  , 0.0  , 0.0  , 0.0 );
                        kernels[119] = compute_kernel(x,   0.0  , 0.0  , 0.0  , 0.0  , 0.0  , 0.0 );
                        kernels[120] = compute_kernel(x,   0.0  , 0.0  , 0.0  , 0.0  , 0.0  , 0.0 );
                        kernels[121] = compute_kernel(x,   0.0  , 0.0  , 0.0  , 0.0  , 0.0  , 0.0 );
                        kernels[122] = compute_kernel(x,   0.0  , 0.0  , 0.0  , 0.0  , 0.0  , 0.0 );
                        kernels[123] = compute_kernel(x,   0.0  , 0.0  , 0.0  , 0.0  , 0.0  , 0.0 );
                        kernels[124] = compute_kernel(x,   0.0  , 0.0  , 0.0  , 0.0  , 0.0  , 0.0 );
                        kernels[125] = compute_kernel(x,   0.0  , 0.0  , 0.0  , 0.0  , 0.0  , 0.0 );
                        kernels[126] = compute_kernel(x,   0.0  , 0.0  , 0.0  , 0.0  , 0.0  , 0.0 );
                        kernels[127] = compute_kernel(x,   0.0  , 0.0  , 0.0  , 0.0  , 0.0  , 0.0 );
                        kernels[128] = compute_kernel(x,   0.0  , 0.0  , 0.0  , 0.0  , 0.0  , 0.0 );
                        kernels[129] = compute_kernel(x,   0.0  , 0.0  , 0.0  , 0.0  , 0.0  , 0.0 );
                        kernels[130] = compute_kernel(x,   0.0  , 0.0  , 0.0  , 0.0  , 0.0  , 0.0 );
                        kernels[131] = compute_kernel(x,   0.0  , 0.0  , 0.0  , 0.0  , 0.0  , 0.0 );
                        kernels[132] = compute_kernel(x,   0.0  , 0.0  , 0.0  , 0.0  , 0.0  , 0.0 );
                        kernels[133] = compute_kernel(x,   0.0  , 0.0  , 0.0  , 0.0  , 0.0  , 0.0 );
                        kernels[134] = compute_kernel(x,   0.0  , 0.0  , 0.0  , 0.0  , 0.0  , 0.0 );
                        kernels[135] = compute_kernel(x,   0.0  , 0.0  , 0.0  , 0.0  , 0.0  , 0.0 );
                        kernels[136] = compute_kernel(x,   0.0  , 0.0  , 0.0  , 0.0  , 0.0  , 0.0 );
                        kernels[137] = compute_kernel(x,   0.0  , 0.0  , 0.0  , 0.0  , 0.0  , 0.0 );
                        kernels[138] = compute_kernel(x,   103.0  , 49.0  , 6.0  , 0.0  , 0.0  , 0.0 );
                        kernels[139] = compute_kernel(x,   0.0  , 0.0  , 0.0  , 0.0  , 0.0  , 0.0 );
                        kernels[140] = compute_kernel(x,   0.0  , 0.0  , 0.0  , 0.0  , 0.0  , 0.0 );
                        kernels[141] = compute_kernel(x,   0.0  , 0.0  , 0.0  , 0.0  , 0.0  , 0.0 );
                        kernels[142] = compute_kernel(x,   0.0  , 0.0  , 0.0  , 0.0  , 0.0  , 0.0 );
                        kernels[143] = compute_kernel(x,   0.0  , 0.0  , 0.0  , 0.0  , 0.0  , 0.0 );
                        kernels[144] = compute_kernel(x,   0.0  , 0.0  , 0.0  , 0.0  , 0.0  , 0.0 );
                        kernels[145] = compute_kernel(x,   0.0  , 0.0  , 0.0  , 0.0  , 0.0  , 0.0 );
                        kernels[146] = compute_kernel(x,   0.0  , 0.0  , 0.0  , 0.0  , 0.0  , 0.0 );
                        kernels[147] = compute_kernel(x,   0.0  , 0.0  , 0.0  , 0.0  , 0.0  , 0.0 );
                        kernels[148] = compute_kernel(x,   0.0  , 0.0  , 0.0  , 0.0  , 0.0  , 0.0 );
                        kernels[149] = compute_kernel(x,   0.0  , 0.0  , 0.0  , 0.0  , 0.0  , 0.0 );
                        kernels[150] = compute_kernel(x,   0.0  , 0.0  , 0.0  , 0.0  , 0.0  , 0.0 );
                        kernels[151] = compute_kernel(x,   0.0  , 0.0  , 0.0  , 0.0  , 0.0  , 0.0 );
                        kernels[152] = compute_kernel(x,   0.0  , 0.0  , 0.0  , 0.0  , 0.0  , 0.0 );
                        kernels[153] = compute_kernel(x,   0.0  , 0.0  , 0.0  , 0.0  , 0.0  , 0.0 );
                        kernels[154] = compute_kernel(x,   0.0  , 0.0  , 0.0  , 0.0  , 0.0  , 0.0 );
                        kernels[155] = compute_kernel(x,   0.0  , 0.0  , 0.0  , 0.0  , 0.0  , 0.0 );
                        kernels[156] = compute_kernel(x,   0.0  , 0.0  , 0.0  , 0.0  , 0.0  , 0.0 );
                        kernels[157] = compute_kernel(x,   0.0  , 0.0  , 0.0  , 0.0  , 0.0  , 0.0 );
                        kernels[158] = compute_kernel(x,   0.0  , 0.0  , 0.0  , 0.0  , 0.0  , 0.0 );
                        kernels[159] = compute_kernel(x,   0.0  , 0.0  , 0.0  , 0.0  , 0.0  , 0.0 );
                        kernels[160] = compute_kernel(x,   0.0  , 0.0  , 0.0  , 0.0  , 0.0  , 0.0 );
                        kernels[161] = compute_kernel(x,   0.0  , 0.0  , 0.0  , 0.0  , 0.0  , 0.0 );
                        kernels[162] = compute_kernel(x,   0.0  , 0.0  , 0.0  , 0.0  , 0.0  , 0.0 );
                        kernels[163] = compute_kernel(x,   0.0  , 0.0  , 0.0  , 0.0  , 0.0  , 0.0 );
                        kernels[164] = compute_kernel(x,   0.0  , 0.0  , 0.0  , 0.0  , 0.0  , 0.0 );
                        kernels[165] = compute_kernel(x,   0.0  , 0.0  , 0.0  , 0.0  , 0.0  , 0.0 );
                        kernels[166] = compute_kernel(x,   0.0  , 0.0  , 0.0  , 0.0  , 0.0  , 0.0 );
                        kernels[167] = compute_kernel(x,   0.0  , 0.0  , 0.0  , 0.0  , 0.0  , 0.0 );
                        kernels[168] = compute_kernel(x,   0.0  , 0.0  , 0.0  , 0.0  , 0.0  , 0.0 );
                        kernels[169] = compute_kernel(x,   0.0  , 0.0  , 0.0  , 0.0  , 0.0  , 0.0 );
                        kernels[170] = compute_kernel(x,   0.0  , 0.0  , 0.0  , 0.0  , 0.0  , 0.0 );
                        kernels[171] = compute_kernel(x,   0.0  , 0.0  , 0.0  , 0.0  , 0.0  , 0.0 );
                        kernels[172] = compute_kernel(x,   0.0  , 0.0  , 0.0  , 0.0  , 0.0  , 0.0 );
                        kernels[173] = compute_kernel(x,   0.0  , 0.0  , 0.0  , 0.0  , 0.0  , 0.0 );
                        kernels[174] = compute_kernel(x,   0.0  , 0.0  , 0.0  , 0.0  , 0.0  , 0.0 );
                        kernels[175] = compute_kernel(x,   0.0  , 0.0  , 0.0  , 0.0  , 0.0  , 0.0 );
                        kernels[176] = compute_kernel(x,   0.0  , 0.0  , 0.0  , 0.0  , 0.0  , 0.0 );
                        kernels[177] = compute_kernel(x,   0.0  , 0.0  , 0.0  , 0.0  , 0.0  , 0.0 );
                        kernels[178] = compute_kernel(x,   0.0  , 0.0  , 0.0  , 0.0  , 0.0  , 0.0 );
                        kernels[179] = compute_kernel(x,   0.0  , 0.0  , 0.0  , 0.0  , 0.0  , 0.0 );
                        kernels[180] = compute_kernel(x,   0.0  , 0.0  , 0.0  , 0.0  , 0.0  , 0.0 );
                        kernels[181] = compute_kernel(x,   0.0  , 0.0  , 0.0  , 0.0  , 0.0  , 0.0 );
                        kernels[182] = compute_kernel(x,   0.0  , 0.0  , 0.0  , 0.0  , 0.0  , 0.0 );
                        kernels[183] = compute_kernel(x,   0.0  , 0.0  , 0.0  , 0.0  , 0.0  , 0.0 );
                        kernels[184] = compute_kernel(x,   95.0  , 50.0  , 5.0  , 1.0  , 0.0  , 0.0 );
                        kernels[185] = compute_kernel(x,   0.0  , 0.0  , 0.0  , 0.0  , 0.0  , 0.0 );
                        kernels[186] = compute_kernel(x,   0.0  , 0.0  , 0.0  , 0.0  , 0.0  , 0.0 );
                        kernels[187] = compute_kernel(x,   0.0  , 0.0  , 0.0  , 0.0  , 0.0  , 0.0 );
                        kernels[188] = compute_kernel(x,   0.0  , 0.0  , 0.0  , 0.0  , 0.0  , 0.0 );
                        kernels[189] = compute_kernel(x,   0.0  , 0.0  , 0.0  , 0.0  , 0.0  , 0.0 );
                        kernels[190] = compute_kernel(x,   0.0  , 0.0  , 0.0  , 0.0  , 0.0  , 0.0 );
                        kernels[191] = compute_kernel(x,   0.0  , 0.0  , 0.0  , 0.0  , 0.0  , 0.0 );
                        kernels[192] = compute_kernel(x,   0.0  , 0.0  , 0.0  , 0.0  , 0.0  , 0.0 );
                        kernels[193] = compute_kernel(x,   0.0  , 0.0  , 0.0  , 0.0  , 0.0  , 0.0 );
                        kernels[194] = compute_kernel(x,   0.0  , 0.0  , 0.0  , 0.0  , 0.0  , 0.0 );
                        kernels[195] = compute_kernel(x,   0.0  , 0.0  , 0.0  , 0.0  , 0.0  , 0.0 );
                        kernels[196] = compute_kernel(x,   0.0  , 0.0  , 0.0  , 0.0  , 0.0  , 0.0 );
                        kernels[197] = compute_kernel(x,   0.0  , 0.0  , 0.0  , 0.0  , 0.0  , 0.0 );
                        kernels[198] = compute_kernel(x,   0.0  , 0.0  , 0.0  , 0.0  , 0.0  , 0.0 );
                        kernels[199] = compute_kernel(x,   0.0  , 0.0  , 0.0  , 0.0  , 0.0  , 0.0 );
                        kernels[200] = compute_kernel(x,   0.0  , 0.0  , 0.0  , 0.0  , 0.0  , 0.0 );
                        kernels[201] = compute_kernel(x,   0.0  , 0.0  , 0.0  , 0.0  , 0.0  , 0.0 );
                        kernels[202] = compute_kernel(x,   0.0  , 0.0  , 0.0  , 0.0  , 0.0  , 0.0 );
                        kernels[203] = compute_kernel(x,   0.0  , 0.0  , 0.0  , 0.0  , 0.0  , 0.0 );
                        kernels[204] = compute_kernel(x,   0.0  , 0.0  , 0.0  , 0.0  , 0.0  , 0.0 );
                        kernels[205] = compute_kernel(x,   0.0  , 0.0  , 0.0  , 0.0  , 0.0  , 0.0 );
                        kernels[206] = compute_kernel(x,   0.0  , 0.0  , 0.0  , 0.0  , 0.0  , 0.0 );
                        kernels[207] = compute_kernel(x,   0.0  , 0.0  , 0.0  , 0.0  , 0.0  , 0.0 );
                        kernels[208] = compute_kernel(x,   0.0  , 0.0  , 0.0  , 0.0  , 0.0  , 0.0 );
                        kernels[209] = compute_kernel(x,   0.0  , 0.0  , 0.0  , 0.0  , 0.0  , 0.0 );
                        kernels[210] = compute_kernel(x,   0.0  , 0.0  , 0.0  , 0.0  , 0.0  , 0.0 );
                        kernels[211] = compute_kernel(x,   0.0  , 0.0  , 0.0  , 0.0  , 0.0  , 0.0 );
                        kernels[212] = compute_kernel(x,   0.0  , 0.0  , 0.0  , 0.0  , 0.0  , 0.0 );
                        kernels[213] = compute_kernel(x,   0.0  , 0.0  , 0.0  , 0.0  , 0.0  , 0.0 );
                        kernels[214] = compute_kernel(x,   0.0  , 0.0  , 0.0  , 0.0  , 0.0  , 0.0 );
                        kernels[215] = compute_kernel(x,   0.0  , 0.0  , 0.0  , 0.0  , 0.0  , 0.0 );
                        kernels[216] = compute_kernel(x,   0.0  , 0.0  , 0.0  , 0.0  , 0.0  , 0.0 );
                        kernels[217] = compute_kernel(x,   0.0  , 0.0  , 0.0  , 0.0  , 0.0  , 0.0 );
                        kernels[218] = compute_kernel(x,   0.0  , 0.0  , 0.0  , 0.0  , 0.0  , 0.0 );
                        kernels[219] = compute_kernel(x,   0.0  , 0.0  , 0.0  , 0.0  , 0.0  , 0.0 );
                        kernels[220] = compute_kernel(x,   0.0  , 0.0  , 0.0  , 0.0  , 0.0  , 0.0 );
                        kernels[221] = compute_kernel(x,   0.0  , 0.0  , 0.0  , 0.0  , 0.0  , 0.0 );
                        kernels[222] = compute_kernel(x,   0.0  , 0.0  , 0.0  , 0.0  , 0.0  , 0.0 );
                        kernels[223] = compute_kernel(x,   0.0  , 0.0  , 0.0  , 0.0  , 0.0  , 0.0 );
                        kernels[224] = compute_kernel(x,   0.0  , 0.0  , 0.0  , 0.0  , 0.0  , 0.0 );
                        kernels[225] = compute_kernel(x,   0.0  , 0.0  , 0.0  , 0.0  , 0.0  , 0.0 );
                        kernels[226] = compute_kernel(x,   0.0  , 0.0  , 0.0  , 0.0  , 0.0  , 0.0 );
                        kernels[227] = compute_kernel(x,   0.0  , 0.0  , 0.0  , 0.0  , 0.0  , 0.0 );
                        kernels[228] = compute_kernel(x,   0.0  , 0.0  , 0.0  , 0.0  , 0.0  , 0.0 );
                        kernels[229] = compute_kernel(x,   0.0  , 0.0  , 0.0  , 0.0  , 0.0  , 0.0 );
                        kernels[230] = compute_kernel(x,   95.0  , 50.0  , 14.0  , 3.0  , 0.0  , 0.0 );
                        kernels[231] = compute_kernel(x,   0.0  , 0.0  , 0.0  , 0.0  , 0.0  , 0.0 );
                        kernels[232] = compute_kernel(x,   0.0  , 0.0  , 0.0  , 0.0  , 0.0  , 0.0 );
                        kernels[233] = compute_kernel(x,   0.0  , 0.0  , 0.0  , 0.0  , 0.0  , 0.0 );
                        kernels[234] = compute_kernel(x,   0.0  , 0.0  , 0.0  , 0.0  , 0.0  , 0.0 );
                        kernels[235] = compute_kernel(x,   0.0  , 0.0  , 0.0  , 0.0  , 0.0  , 0.0 );
                        kernels[236] = compute_kernel(x,   0.0  , 0.0  , 0.0  , 0.0  , 0.0  , 0.0 );
                        kernels[237] = compute_kernel(x,   0.0  , 0.0  , 0.0  , 0.0  , 0.0  , 0.0 );
                        kernels[238] = compute_kernel(x,   0.0  , 0.0  , 0.0  , 0.0  , 0.0  , 0.0 );
                        kernels[239] = compute_kernel(x,   0.0  , 0.0  , 0.0  , 0.0  , 0.0  , 0.0 );
                        kernels[240] = compute_kernel(x,   0.0  , 0.0  , 0.0  , 0.0  , 0.0  , 0.0 );
                        kernels[241] = compute_kernel(x,   0.0  , 0.0  , 0.0  , 0.0  , 0.0  , 0.0 );
                        kernels[242] = compute_kernel(x,   0.0  , 0.0  , 0.0  , 0.0  , 0.0  , 0.0 );
                        kernels[243] = compute_kernel(x,   0.0  , 0.0  , 0.0  , 0.0  , 0.0  , 0.0 );
                        kernels[244] = compute_kernel(x,   0.0  , 0.0  , 0.0  , 0.0  , 0.0  , 0.0 );
                        kernels[245] = compute_kernel(x,   0.0  , 0.0  , 0.0  , 0.0  , 0.0  , 0.0 );
                        kernels[246] = compute_kernel(x,   0.0  , 0.0  , 0.0  , 0.0  , 0.0  , 0.0 );
                        kernels[247] = compute_kernel(x,   0.0  , 0.0  , 0.0  , 0.0  , 0.0  , 0.0 );
                        kernels[248] = compute_kernel(x,   0.0  , 0.0  , 0.0  , 0.0  , 0.0  , 0.0 );
                        kernels[249] = compute_kernel(x,   0.0  , 0.0  , 0.0  , 0.0  , 0.0  , 0.0 );
                        kernels[250] = compute_kernel(x,   0.0  , 0.0  , 0.0  , 0.0  , 0.0  , 0.0 );
                        kernels[251] = compute_kernel(x,   0.0  , 0.0  , 0.0  , 0.0  , 0.0  , 0.0 );
                        kernels[252] = compute_kernel(x,   0.0  , 0.0  , 0.0  , 0.0  , 0.0  , 0.0 );
                        kernels[253] = compute_kernel(x,   0.0  , 0.0  , 0.0  , 0.0  , 0.0  , 0.0 );
                        kernels[254] = compute_kernel(x,   0.0  , 0.0  , 0.0  , 0.0  , 0.0  , 0.0 );
                        kernels[255] = compute_kernel(x,   0.0  , 0.0  , 0.0  , 0.0  , 0.0  , 0.0 );
                        kernels[256] = compute_kernel(x,   0.0  , 0.0  , 0.0  , 0.0  , 0.0  , 0.0 );
                        kernels[257] = compute_kernel(x,   0.0  , 0.0  , 0.0  , 0.0  , 0.0  , 0.0 );
                        kernels[258] = compute_kernel(x,   0.0  , 0.0  , 0.0  , 0.0  , 0.0  , 0.0 );
                        kernels[259] = compute_kernel(x,   0.0  , 0.0  , 0.0  , 0.0  , 0.0  , 0.0 );
                        kernels[260] = compute_kernel(x,   0.0  , 0.0  , 0.0  , 0.0  , 0.0  , 0.0 );
                        kernels[261] = compute_kernel(x,   0.0  , 0.0  , 0.0  , 0.0  , 0.0  , 0.0 );
                        kernels[262] = compute_kernel(x,   0.0  , 0.0  , 0.0  , 0.0  , 0.0  , 0.0 );
                        kernels[263] = compute_kernel(x,   0.0  , 0.0  , 0.0  , 0.0  , 0.0  , 0.0 );
                        kernels[264] = compute_kernel(x,   0.0  , 0.0  , 0.0  , 0.0  , 0.0  , 0.0 );
                        kernels[265] = compute_kernel(x,   0.0  , 0.0  , 0.0  , 0.0  , 0.0  , 0.0 );
                        kernels[266] = compute_kernel(x,   0.0  , 0.0  , 0.0  , 0.0  , 0.0  , 0.0 );
                        kernels[267] = compute_kernel(x,   0.0  , 0.0  , 0.0  , 0.0  , 0.0  , 0.0 );
                        kernels[268] = compute_kernel(x,   0.0  , 0.0  , 0.0  , 0.0  , 0.0  , 0.0 );
                        kernels[269] = compute_kernel(x,   0.0  , 0.0  , 0.0  , 0.0  , 0.0  , 0.0 );
                        kernels[270] = compute_kernel(x,   0.0  , 0.0  , 0.0  , 0.0  , 0.0  , 0.0 );
                        kernels[271] = compute_kernel(x,   0.0  , 0.0  , 0.0  , 0.0  , 0.0  , 0.0 );
                        kernels[272] = compute_kernel(x,   0.0  , 0.0  , 0.0  , 0.0  , 0.0  , 0.0 );
                        kernels[273] = compute_kernel(x,   0.0  , 0.0  , 0.0  , 0.0  , 0.0  , 0.0 );
                        kernels[274] = compute_kernel(x,   0.0  , 0.0  , 0.0  , 0.0  , 0.0  , 0.0 );
                        kernels[275] = compute_kernel(x,   0.0  , 0.0  , 0.0  , 0.0  , 0.0  , 0.0 );
                        kernels[276] = compute_kernel(x,   79.0  , 76.0  , 12.0  , 0.0  , 0.0  , 0.0 );
                        kernels[277] = compute_kernel(x,   0.0  , 0.0  , 0.0  , 0.0  , 0.0  , 0.0 );
                        kernels[278] = compute_kernel(x,   0.0  , 0.0  , 0.0  , 0.0  , 0.0  , 0.0 );
                        kernels[279] = compute_kernel(x,   0.0  , 0.0  , 0.0  , 0.0  , 0.0  , 0.0 );
                        kernels[280] = compute_kernel(x,   0.0  , 0.0  , 0.0  , 0.0  , 0.0  , 0.0 );
                        kernels[281] = compute_kernel(x,   0.0  , 0.0  , 0.0  , 0.0  , 0.0  , 0.0 );
                        kernels[282] = compute_kernel(x,   0.0  , 0.0  , 0.0  , 0.0  , 0.0  , 0.0 );
                        kernels[283] = compute_kernel(x,   0.0  , 0.0  , 0.0  , 0.0  , 0.0  , 0.0 );
                        kernels[284] = compute_kernel(x,   0.0  , 0.0  , 0.0  , 0.0  , 0.0  , 0.0 );
                        kernels[285] = compute_kernel(x,   0.0  , 0.0  , 0.0  , 0.0  , 0.0  , 0.0 );
                        kernels[286] = compute_kernel(x,   0.0  , 0.0  , 0.0  , 0.0  , 0.0  , 0.0 );
                        kernels[287] = compute_kernel(x,   0.0  , 0.0  , 0.0  , 0.0  , 0.0  , 0.0 );
                        kernels[288] = compute_kernel(x,   0.0  , 0.0  , 0.0  , 0.0  , 0.0  , 0.0 );
                        kernels[289] = compute_kernel(x,   0.0  , 0.0  , 0.0  , 0.0  , 0.0  , 0.0 );
                        kernels[290] = compute_kernel(x,   0.0  , 0.0  , 0.0  , 0.0  , 0.0  , 0.0 );
                        kernels[291] = compute_kernel(x,   0.0  , 0.0  , 0.0  , 0.0  , 0.0  , 0.0 );
                        kernels[292] = compute_kernel(x,   0.0  , 0.0  , 0.0  , 0.0  , 0.0  , 0.0 );
                        kernels[293] = compute_kernel(x,   0.0  , 0.0  , 0.0  , 0.0  , 0.0  , 0.0 );
                        kernels[294] = compute_kernel(x,   0.0  , 0.0  , 0.0  , 0.0  , 0.0  , 0.0 );
                        kernels[295] = compute_kernel(x,   0.0  , 0.0  , 0.0  , 0.0  , 0.0  , 0.0 );
                        kernels[296] = compute_kernel(x,   0.0  , 0.0  , 0.0  , 0.0  , 0.0  , 0.0 );
                        kernels[297] = compute_kernel(x,   0.0  , 0.0  , 0.0  , 0.0  , 0.0  , 0.0 );
                        kernels[298] = compute_kernel(x,   0.0  , 0.0  , 0.0  , 0.0  , 0.0  , 0.0 );
                        kernels[299] = compute_kernel(x,   0.0  , 0.0  , 0.0  , 0.0  , 0.0  , 0.0 );
                        kernels[300] = compute_kernel(x,   0.0  , 0.0  , 0.0  , 0.0  , 0.0  , 0.0 );
                        kernels[301] = compute_kernel(x,   0.0  , 0.0  , 0.0  , 0.0  , 0.0  , 0.0 );
                        kernels[302] = compute_kernel(x,   0.0  , 0.0  , 0.0  , 0.0  , 0.0  , 0.0 );
                        kernels[303] = compute_kernel(x,   0.0  , 0.0  , 0.0  , 0.0  , 0.0  , 0.0 );
                        kernels[304] = compute_kernel(x,   0.0  , 0.0  , 0.0  , 0.0  , 0.0  , 0.0 );
                        kernels[305] = compute_kernel(x,   0.0  , 0.0  , 0.0  , 0.0  , 0.0  , 0.0 );
                        kernels[306] = compute_kernel(x,   0.0  , 0.0  , 0.0  , 0.0  , 0.0  , 0.0 );
                        kernels[307] = compute_kernel(x,   0.0  , 0.0  , 0.0  , 0.0  , 0.0  , 0.0 );
                        kernels[308] = compute_kernel(x,   0.0  , 0.0  , 0.0  , 0.0  , 0.0  , 0.0 );
                        kernels[309] = compute_kernel(x,   0.0  , 0.0  , 0.0  , 0.0  , 0.0  , 0.0 );
                        kernels[310] = compute_kernel(x,   0.0  , 0.0  , 0.0  , 0.0  , 0.0  , 0.0 );
                        kernels[311] = compute_kernel(x,   0.0  , 0.0  , 0.0  , 0.0  , 0.0  , 0.0 );
                        kernels[312] = compute_kernel(x,   0.0  , 0.0  , 0.0  , 0.0  , 0.0  , 0.0 );
                        kernels[313] = compute_kernel(x,   0.0  , 0.0  , 0.0  , 0.0  , 0.0  , 0.0 );
                        kernels[314] = compute_kernel(x,   0.0  , 0.0  , 0.0  , 0.0  , 0.0  , 0.0 );
                        kernels[315] = compute_kernel(x,   0.0  , 0.0  , 0.0  , 0.0  , 0.0  , 0.0 );
                        kernels[316] = compute_kernel(x,   0.0  , 0.0  , 0.0  , 0.0  , 0.0  , 0.0 );
                        kernels[317] = compute_kernel(x,   0.0  , 0.0  , 0.0  , 0.0  , 0.0  , 0.0 );
                        kernels[318] = compute_kernel(x,   0.0  , 0.0  , 0.0  , 0.0  , 0.0  , 0.0 );
                        kernels[319] = compute_kernel(x,   0.0  , 0.0  , 0.0  , 0.0  , 0.0  , 0.0 );
                        kernels[320] = compute_kernel(x,   0.0  , 0.0  , 0.0  , 0.0  , 0.0  , 0.0 );
                        kernels[321] = compute_kernel(x,   0.0  , 0.0  , 0.0  , 0.0  , 0.0  , 0.0 );
                        kernels[322] = compute_kernel(x,   60.0  , 70.0  , 19.0  , 4.0  , 0.0  , 0.0 );
                        kernels[323] = compute_kernel(x,   0.0  , 0.0  , 0.0  , 0.0  , 0.0  , 0.0 );
                        kernels[324] = compute_kernel(x,   0.0  , 0.0  , 0.0  , 0.0  , 0.0  , 0.0 );
                        kernels[325] = compute_kernel(x,   0.0  , 0.0  , 0.0  , 0.0  , 0.0  , 0.0 );
                        kernels[326] = compute_kernel(x,   0.0  , 0.0  , 0.0  , 0.0  , 0.0  , 0.0 );
                        kernels[327] = compute_kernel(x,   0.0  , 0.0  , 0.0  , 0.0  , 0.0  , 0.0 );
                        kernels[328] = compute_kernel(x,   0.0  , 0.0  , 0.0  , 0.0  , 0.0  , 0.0 );
                        kernels[329] = compute_kernel(x,   0.0  , 0.0  , 0.0  , 0.0  , 0.0  , 0.0 );
                        kernels[330] = compute_kernel(x,   0.0  , 0.0  , 0.0  , 0.0  , 0.0  , 0.0 );
                        kernels[331] = compute_kernel(x,   0.0  , 0.0  , 0.0  , 0.0  , 0.0  , 0.0 );
                        kernels[332] = compute_kernel(x,   0.0  , 0.0  , 0.0  , 0.0  , 0.0  , 0.0 );
                        kernels[333] = compute_kernel(x,   0.0  , 0.0  , 0.0  , 0.0  , 0.0  , 0.0 );
                        kernels[334] = compute_kernel(x,   0.0  , 0.0  , 0.0  , 0.0  , 0.0  , 0.0 );
                        kernels[335] = compute_kernel(x,   0.0  , 0.0  , 0.0  , 0.0  , 0.0  , 0.0 );
                        kernels[336] = compute_kernel(x,   0.0  , 0.0  , 0.0  , 0.0  , 0.0  , 0.0 );
                        kernels[337] = compute_kernel(x,   0.0  , 0.0  , 0.0  , 0.0  , 0.0  , 0.0 );
                        kernels[338] = compute_kernel(x,   0.0  , 0.0  , 0.0  , 0.0  , 0.0  , 0.0 );
                        kernels[339] = compute_kernel(x,   0.0  , 0.0  , 0.0  , 0.0  , 0.0  , 0.0 );
                        kernels[340] = compute_kernel(x,   0.0  , 0.0  , 0.0  , 0.0  , 0.0  , 0.0 );
                        kernels[341] = compute_kernel(x,   0.0  , 0.0  , 0.0  , 0.0  , 0.0  , 0.0 );
                        kernels[342] = compute_kernel(x,   0.0  , 0.0  , 0.0  , 0.0  , 0.0  , 0.0 );
                        kernels[343] = compute_kernel(x,   0.0  , 0.0  , 0.0  , 0.0  , 0.0  , 0.0 );
                        kernels[344] = compute_kernel(x,   0.0  , 0.0  , 0.0  , 0.0  , 0.0  , 0.0 );
                        kernels[345] = compute_kernel(x,   0.0  , 0.0  , 0.0  , 0.0  , 0.0  , 0.0 );
                        kernels[346] = compute_kernel(x,   0.0  , 0.0  , 0.0  , 0.0  , 0.0  , 0.0 );
                        kernels[347] = compute_kernel(x,   0.0  , 0.0  , 0.0  , 0.0  , 0.0  , 0.0 );
                        kernels[348] = compute_kernel(x,   0.0  , 0.0  , 0.0  , 0.0  , 0.0  , 0.0 );
                        kernels[349] = compute_kernel(x,   0.0  , 0.0  , 0.0  , 0.0  , 0.0  , 0.0 );
                        kernels[350] = compute_kernel(x,   0.0  , 0.0  , 0.0  , 0.0  , 0.0  , 0.0 );
                        kernels[351] = compute_kernel(x,   0.0  , 0.0  , 0.0  , 0.0  , 0.0  , 0.0 );
                        kernels[352] = compute_kernel(x,   0.0  , 0.0  , 0.0  , 0.0  , 0.0  , 0.0 );
                        kernels[353] = compute_kernel(x,   0.0  , 0.0  , 0.0  , 0.0  , 0.0  , 0.0 );
                        kernels[354] = compute_kernel(x,   0.0  , 0.0  , 0.0  , 0.0  , 0.0  , 0.0 );
                        kernels[355] = compute_kernel(x,   0.0  , 0.0  , 0.0  , 0.0  , 0.0  , 0.0 );
                        kernels[356] = compute_kernel(x,   0.0  , 0.0  , 0.0  , 0.0  , 0.0  , 0.0 );
                        kernels[357] = compute_kernel(x,   0.0  , 0.0  , 0.0  , 0.0  , 0.0  , 0.0 );
                        kernels[358] = compute_kernel(x,   0.0  , 0.0  , 0.0  , 0.0  , 0.0  , 0.0 );
                        kernels[359] = compute_kernel(x,   0.0  , 0.0  , 0.0  , 0.0  , 0.0  , 0.0 );
                        kernels[360] = compute_kernel(x,   0.0  , 0.0  , 0.0  , 0.0  , 0.0  , 0.0 );
                        kernels[361] = compute_kernel(x,   0.0  , 0.0  , 0.0  , 0.0  , 0.0  , 0.0 );
                        kernels[362] = compute_kernel(x,   0.0  , 0.0  , 0.0  , 0.0  , 0.0  , 0.0 );
                        kernels[363] = compute_kernel(x,   0.0  , 0.0  , 0.0  , 0.0  , 0.0  , 0.0 );
                        kernels[364] = compute_kernel(x,   0.0  , 0.0  , 0.0  , 0.0  , 0.0  , 0.0 );
                        kernels[365] = compute_kernel(x,   0.0  , 0.0  , 0.0  , 0.0  , 0.0  , 0.0 );
                        kernels[366] = compute_kernel(x,   0.0  , 0.0  , 0.0  , 0.0  , 0.0  , 0.0 );
                        kernels[367] = compute_kernel(x,   0.0  , 0.0  , 0.0  , 0.0  , 0.0  , 0.0 );
                        kernels[368] = compute_kernel(x,   41.0  , 64.0  , 22.0  , 4.0  , 1.0  , 0.0 );
                        kernels[369] = compute_kernel(x,   0.0  , 0.0  , 0.0  , 0.0  , 0.0  , 0.0 );
                        kernels[370] = compute_kernel(x,   0.0  , 0.0  , 0.0  , 0.0  , 0.0  , 0.0 );
                        kernels[371] = compute_kernel(x,   0.0  , 0.0  , 0.0  , 0.0  , 0.0  , 0.0 );
                        kernels[372] = compute_kernel(x,   0.0  , 0.0  , 0.0  , 0.0  , 0.0  , 0.0 );
                        kernels[373] = compute_kernel(x,   0.0  , 0.0  , 0.0  , 0.0  , 0.0  , 0.0 );
                        kernels[374] = compute_kernel(x,   0.0  , 0.0  , 0.0  , 0.0  , 0.0  , 0.0 );
                        kernels[375] = compute_kernel(x,   0.0  , 0.0  , 0.0  , 0.0  , 0.0  , 0.0 );
                        kernels[376] = compute_kernel(x,   0.0  , 0.0  , 0.0  , 0.0  , 0.0  , 0.0 );
                        kernels[377] = compute_kernel(x,   0.0  , 0.0  , 0.0  , 0.0  , 0.0  , 0.0 );
                        kernels[378] = compute_kernel(x,   0.0  , 0.0  , 0.0  , 0.0  , 0.0  , 0.0 );
                        kernels[379] = compute_kernel(x,   0.0  , 0.0  , 0.0  , 0.0  , 0.0  , 0.0 );
                        kernels[380] = compute_kernel(x,   0.0  , 0.0  , 0.0  , 0.0  , 0.0  , 0.0 );
                        kernels[381] = compute_kernel(x,   0.0  , 0.0  , 0.0  , 0.0  , 0.0  , 0.0 );
                        kernels[382] = compute_kernel(x,   0.0  , 0.0  , 0.0  , 0.0  , 0.0  , 0.0 );
                        kernels[383] = compute_kernel(x,   0.0  , 0.0  , 0.0  , 0.0  , 0.0  , 0.0 );
                        kernels[384] = compute_kernel(x,   0.0  , 0.0  , 0.0  , 0.0  , 0.0  , 0.0 );
                        kernels[385] = compute_kernel(x,   0.0  , 0.0  , 0.0  , 0.0  , 0.0  , 0.0 );
                        kernels[386] = compute_kernel(x,   0.0  , 0.0  , 0.0  , 0.0  , 0.0  , 0.0 );
                        kernels[387] = compute_kernel(x,   0.0  , 0.0  , 0.0  , 0.0  , 0.0  , 0.0 );
                        kernels[388] = compute_kernel(x,   0.0  , 0.0  , 0.0  , 0.0  , 0.0  , 0.0 );
                        kernels[389] = compute_kernel(x,   0.0  , 0.0  , 0.0  , 0.0  , 0.0  , 0.0 );
                        kernels[390] = compute_kernel(x,   0.0  , 0.0  , 0.0  , 0.0  , 0.0  , 0.0 );
                        kernels[391] = compute_kernel(x,   0.0  , 0.0  , 0.0  , 0.0  , 0.0  , 0.0 );
                        kernels[392] = compute_kernel(x,   0.0  , 0.0  , 0.0  , 0.0  , 0.0  , 0.0 );
                        kernels[393] = compute_kernel(x,   0.0  , 0.0  , 0.0  , 0.0  , 0.0  , 0.0 );
                        kernels[394] = compute_kernel(x,   0.0  , 0.0  , 0.0  , 0.0  , 0.0  , 0.0 );
                        kernels[395] = compute_kernel(x,   0.0  , 0.0  , 0.0  , 0.0  , 0.0  , 0.0 );
                        kernels[396] = compute_kernel(x,   0.0  , 0.0  , 0.0  , 0.0  , 0.0  , 0.0 );
                        kernels[397] = compute_kernel(x,   0.0  , 0.0  , 0.0  , 0.0  , 0.0  , 0.0 );
                        kernels[398] = compute_kernel(x,   0.0  , 0.0  , 0.0  , 0.0  , 0.0  , 0.0 );
                        kernels[399] = compute_kernel(x,   0.0  , 0.0  , 0.0  , 0.0  , 0.0  , 0.0 );
                        kernels[400] = compute_kernel(x,   0.0  , 0.0  , 0.0  , 0.0  , 0.0  , 0.0 );
                        kernels[401] = compute_kernel(x,   0.0  , 0.0  , 0.0  , 0.0  , 0.0  , 0.0 );
                        kernels[402] = compute_kernel(x,   0.0  , 0.0  , 0.0  , 0.0  , 0.0  , 0.0 );
                        kernels[403] = compute_kernel(x,   0.0  , 0.0  , 0.0  , 0.0  , 0.0  , 0.0 );
                        kernels[404] = compute_kernel(x,   0.0  , 0.0  , 0.0  , 0.0  , 0.0  , 0.0 );
                        kernels[405] = compute_kernel(x,   0.0  , 0.0  , 0.0  , 0.0  , 0.0  , 0.0 );
                        kernels[406] = compute_kernel(x,   0.0  , 0.0  , 0.0  , 0.0  , 0.0  , 0.0 );
                        kernels[407] = compute_kernel(x,   0.0  , 0.0  , 0.0  , 0.0  , 0.0  , 0.0 );
                        kernels[408] = compute_kernel(x,   0.0  , 0.0  , 0.0  , 0.0  , 0.0  , 0.0 );
                        kernels[409] = compute_kernel(x,   0.0  , 0.0  , 0.0  , 0.0  , 0.0  , 0.0 );
                        kernels[410] = compute_kernel(x,   0.0  , 0.0  , 0.0  , 0.0  , 0.0  , 0.0 );
                        kernels[411] = compute_kernel(x,   0.0  , 0.0  , 0.0  , 0.0  , 0.0  , 0.0 );
                        kernels[412] = compute_kernel(x,   0.0  , 0.0  , 0.0  , 0.0  , 0.0  , 0.0 );
                        kernels[413] = compute_kernel(x,   0.0  , 0.0  , 0.0  , 0.0  , 0.0  , 0.0 );
                        kernels[414] = compute_kernel(x,   48.0  , 73.0  , 34.0  , 1.0  , 1.0  , 0.0 );
                        kernels[415] = compute_kernel(x,   0.0  , 0.0  , 0.0  , 0.0  , 0.0  , 0.0 );
                        kernels[416] = compute_kernel(x,   0.0  , 0.0  , 0.0  , 0.0  , 0.0  , 0.0 );
                        kernels[417] = compute_kernel(x,   0.0  , 0.0  , 0.0  , 0.0  , 0.0  , 0.0 );
                        kernels[418] = compute_kernel(x,   0.0  , 0.0  , 0.0  , 0.0  , 0.0  , 0.0 );
                        kernels[419] = compute_kernel(x,   0.0  , 0.0  , 0.0  , 0.0  , 0.0  , 0.0 );
                        kernels[420] = compute_kernel(x,   0.0  , 0.0  , 0.0  , 0.0  , 0.0  , 0.0 );
                        kernels[421] = compute_kernel(x,   0.0  , 0.0  , 0.0  , 0.0  , 0.0  , 0.0 );
                        kernels[422] = compute_kernel(x,   0.0  , 0.0  , 0.0  , 0.0  , 0.0  , 0.0 );
                        kernels[423] = compute_kernel(x,   0.0  , 0.0  , 0.0  , 0.0  , 0.0  , 0.0 );
                        kernels[424] = compute_kernel(x,   0.0  , 0.0  , 0.0  , 0.0  , 0.0  , 0.0 );
                        kernels[425] = compute_kernel(x,   0.0  , 0.0  , 0.0  , 0.0  , 0.0  , 0.0 );
                        kernels[426] = compute_kernel(x,   0.0  , 0.0  , 0.0  , 0.0  , 0.0  , 0.0 );
                        kernels[427] = compute_kernel(x,   0.0  , 0.0  , 0.0  , 0.0  , 0.0  , 0.0 );
                        kernels[428] = compute_kernel(x,   0.0  , 0.0  , 0.0  , 0.0  , 0.0  , 0.0 );
                        kernels[429] = compute_kernel(x,   0.0  , 0.0  , 0.0  , 0.0  , 0.0  , 0.0 );
                        kernels[430] = compute_kernel(x,   0.0  , 0.0  , 0.0  , 0.0  , 0.0  , 0.0 );
                        kernels[431] = compute_kernel(x,   0.0  , 0.0  , 0.0  , 0.0  , 0.0  , 0.0 );
                        kernels[432] = compute_kernel(x,   0.0  , 0.0  , 0.0  , 0.0  , 0.0  , 0.0 );
                        kernels[433] = compute_kernel(x,   0.0  , 0.0  , 0.0  , 0.0  , 0.0  , 0.0 );
                        kernels[434] = compute_kernel(x,   0.0  , 0.0  , 0.0  , 0.0  , 0.0  , 0.0 );
                        kernels[435] = compute_kernel(x,   0.0  , 0.0  , 0.0  , 0.0  , 0.0  , 0.0 );
                        kernels[436] = compute_kernel(x,   0.0  , 0.0  , 0.0  , 0.0  , 0.0  , 0.0 );
                        kernels[437] = compute_kernel(x,   0.0  , 0.0  , 0.0  , 0.0  , 0.0  , 0.0 );
                        kernels[438] = compute_kernel(x,   0.0  , 0.0  , 0.0  , 0.0  , 0.0  , 0.0 );
                        kernels[439] = compute_kernel(x,   0.0  , 0.0  , 0.0  , 0.0  , 0.0  , 0.0 );
                        kernels[440] = compute_kernel(x,   0.0  , 0.0  , 0.0  , 0.0  , 0.0  , 0.0 );
                        kernels[441] = compute_kernel(x,   0.0  , 0.0  , 0.0  , 0.0  , 0.0  , 0.0 );
                        kernels[442] = compute_kernel(x,   0.0  , 0.0  , 0.0  , 0.0  , 0.0  , 0.0 );
                        kernels[443] = compute_kernel(x,   0.0  , 0.0  , 0.0  , 0.0  , 0.0  , 0.0 );
                        kernels[444] = compute_kernel(x,   0.0  , 0.0  , 0.0  , 0.0  , 0.0  , 0.0 );
                        kernels[445] = compute_kernel(x,   0.0  , 0.0  , 0.0  , 0.0  , 0.0  , 0.0 );
                        kernels[446] = compute_kernel(x,   0.0  , 0.0  , 0.0  , 0.0  , 0.0  , 0.0 );
                        kernels[447] = compute_kernel(x,   0.0  , 0.0  , 0.0  , 0.0  , 0.0  , 0.0 );
                        kernels[448] = compute_kernel(x,   0.0  , 0.0  , 0.0  , 0.0  , 0.0  , 0.0 );
                        kernels[449] = compute_kernel(x,   0.0  , 0.0  , 0.0  , 0.0  , 0.0  , 0.0 );
                        kernels[450] = compute_kernel(x,   0.0  , 0.0  , 0.0  , 0.0  , 0.0  , 0.0 );
                        kernels[451] = compute_kernel(x,   0.0  , 0.0  , 0.0  , 0.0  , 0.0  , 0.0 );
                        kernels[452] = compute_kernel(x,   0.0  , 0.0  , 0.0  , 0.0  , 0.0  , 0.0 );
                        kernels[453] = compute_kernel(x,   0.0  , 0.0  , 0.0  , 0.0  , 0.0  , 0.0 );
                        kernels[454] = compute_kernel(x,   0.0  , 0.0  , 0.0  , 0.0  , 0.0  , 0.0 );
                        kernels[455] = compute_kernel(x,   0.0  , 0.0  , 0.0  , 0.0  , 0.0  , 0.0 );
                        kernels[456] = compute_kernel(x,   0.0  , 0.0  , 0.0  , 0.0  , 0.0  , 0.0 );
                        kernels[457] = compute_kernel(x,   0.0  , 0.0  , 0.0  , 0.0  , 0.0  , 0.0 );
                        kernels[458] = compute_kernel(x,   0.0  , 0.0  , 0.0  , 0.0  , 0.0  , 0.0 );
                        kernels[459] = compute_kernel(x,   0.0  , 0.0  , 0.0  , 0.0  , 0.0  , 0.0 );
                        kernels[460] = compute_kernel(x,   39.0  , 70.0  , 39.0  , 15.0  , 0.0  , 0.0 );
                        kernels[461] = compute_kernel(x,   0.0  , 0.0  , 0.0  , 0.0  , 0.0  , 0.0 );
                        kernels[462] = compute_kernel(x,   0.0  , 0.0  , 0.0  , 0.0  , 0.0  , 0.0 );
                        kernels[463] = compute_kernel(x,   0.0  , 0.0  , 0.0  , 0.0  , 0.0  , 0.0 );
                        kernels[464] = compute_kernel(x,   0.0  , 0.0  , 0.0  , 0.0  , 0.0  , 0.0 );
                        kernels[465] = compute_kernel(x,   0.0  , 0.0  , 0.0  , 0.0  , 0.0  , 0.0 );
                        kernels[466] = compute_kernel(x,   0.0  , 0.0  , 0.0  , 0.0  , 0.0  , 0.0 );
                        kernels[467] = compute_kernel(x,   0.0  , 0.0  , 0.0  , 0.0  , 0.0  , 0.0 );
                        kernels[468] = compute_kernel(x,   0.0  , 0.0  , 0.0  , 0.0  , 0.0  , 0.0 );
                        kernels[469] = compute_kernel(x,   0.0  , 0.0  , 0.0  , 0.0  , 0.0  , 0.0 );
                        kernels[470] = compute_kernel(x,   0.0  , 0.0  , 0.0  , 0.0  , 0.0  , 0.0 );
                        kernels[471] = compute_kernel(x,   0.0  , 0.0  , 0.0  , 0.0  , 0.0  , 0.0 );
                        kernels[472] = compute_kernel(x,   0.0  , 0.0  , 0.0  , 0.0  , 0.0  , 0.0 );
                        kernels[473] = compute_kernel(x,   0.0  , 0.0  , 0.0  , 0.0  , 0.0  , 0.0 );
                        kernels[474] = compute_kernel(x,   0.0  , 0.0  , 0.0  , 0.0  , 0.0  , 0.0 );
                        kernels[475] = compute_kernel(x,   0.0  , 0.0  , 0.0  , 0.0  , 0.0  , 0.0 );
                        kernels[476] = compute_kernel(x,   0.0  , 0.0  , 0.0  , 0.0  , 0.0  , 0.0 );
                        kernels[477] = compute_kernel(x,   0.0  , 0.0  , 0.0  , 0.0  , 0.0  , 0.0 );
                        kernels[478] = compute_kernel(x,   0.0  , 0.0  , 0.0  , 0.0  , 0.0  , 0.0 );
                        kernels[479] = compute_kernel(x,   0.0  , 0.0  , 0.0  , 0.0  , 0.0  , 0.0 );
                        kernels[480] = compute_kernel(x,   0.0  , 0.0  , 0.0  , 0.0  , 0.0  , 0.0 );
                        kernels[481] = compute_kernel(x,   0.0  , 0.0  , 0.0  , 0.0  , 0.0  , 0.0 );
                        kernels[482] = compute_kernel(x,   0.0  , 0.0  , 0.0  , 0.0  , 0.0  , 0.0 );
                        kernels[483] = compute_kernel(x,   0.0  , 0.0  , 0.0  , 0.0  , 0.0  , 0.0 );
                        kernels[484] = compute_kernel(x,   0.0  , 0.0  , 0.0  , 0.0  , 0.0  , 0.0 );
                        kernels[485] = compute_kernel(x,   0.0  , 0.0  , 0.0  , 0.0  , 0.0  , 0.0 );
                        kernels[486] = compute_kernel(x,   0.0  , 0.0  , 0.0  , 0.0  , 0.0  , 0.0 );
                        kernels[487] = compute_kernel(x,   0.0  , 0.0  , 0.0  , 0.0  , 0.0  , 0.0 );
                        kernels[488] = compute_kernel(x,   0.0  , 0.0  , 0.0  , 0.0  , 0.0  , 0.0 );
                        kernels[489] = compute_kernel(x,   0.0  , 0.0  , 0.0  , 0.0  , 0.0  , 0.0 );
                        kernels[490] = compute_kernel(x,   0.0  , 0.0  , 0.0  , 0.0  , 0.0  , 0.0 );
                        kernels[491] = compute_kernel(x,   0.0  , 0.0  , 0.0  , 0.0  , 0.0  , 0.0 );
                        kernels[492] = compute_kernel(x,   0.0  , 0.0  , 0.0  , 0.0  , 0.0  , 0.0 );
                        kernels[493] = compute_kernel(x,   0.0  , 0.0  , 0.0  , 0.0  , 0.0  , 0.0 );
                        kernels[494] = compute_kernel(x,   0.0  , 0.0  , 0.0  , 0.0  , 0.0  , 0.0 );
                        kernels[495] = compute_kernel(x,   0.0  , 0.0  , 0.0  , 0.0  , 0.0  , 0.0 );
                        kernels[496] = compute_kernel(x,   0.0  , 0.0  , 0.0  , 0.0  , 0.0  , 0.0 );
                        kernels[497] = compute_kernel(x,   0.0  , 0.0  , 0.0  , 0.0  , 0.0  , 0.0 );
                        kernels[498] = compute_kernel(x,   0.0  , 0.0  , 0.0  , 0.0  , 0.0  , 0.0 );
                        kernels[499] = compute_kernel(x,   0.0  , 0.0  , 0.0  , 0.0  , 0.0  , 0.0 );
                        kernels[500] = compute_kernel(x,   0.0  , 0.0  , 0.0  , 0.0  , 0.0  , 0.0 );
                        kernels[501] = compute_kernel(x,   0.0  , 0.0  , 0.0  , 0.0  , 0.0  , 0.0 );
                        kernels[502] = compute_kernel(x,   0.0  , 0.0  , 0.0  , 0.0  , 0.0  , 0.0 );
                        kernels[503] = compute_kernel(x,   0.0  , 0.0  , 0.0  , 0.0  , 0.0  , 0.0 );
                        kernels[504] = compute_kernel(x,   0.0  , 0.0  , 0.0  , 0.0  , 0.0  , 0.0 );
                        kernels[505] = compute_kernel(x,   0.0  , 0.0  , 0.0  , 0.0  , 0.0  , 0.0 );
                        kernels[506] = compute_kernel(x,   40.0  , 73.0  , 47.0  , 14.0  , 3.0  , 0.0 );
                        kernels[507] = compute_kernel(x,   0.0  , 0.0  , 0.0  , 0.0  , 0.0  , 0.0 );
                        kernels[508] = compute_kernel(x,   0.0  , 0.0  , 0.0  , 0.0  , 0.0  , 0.0 );
                        kernels[509] = compute_kernel(x,   0.0  , 0.0  , 0.0  , 0.0  , 0.0  , 0.0 );
                        kernels[510] = compute_kernel(x,   0.0  , 0.0  , 0.0  , 0.0  , 0.0  , 0.0 );
                        kernels[511] = compute_kernel(x,   0.0  , 0.0  , 0.0  , 0.0  , 0.0  , 0.0 );
                        kernels[512] = compute_kernel(x,   0.0  , 0.0  , 0.0  , 0.0  , 0.0  , 0.0 );
                        kernels[513] = compute_kernel(x,   0.0  , 0.0  , 0.0  , 0.0  , 0.0  , 0.0 );
                        kernels[514] = compute_kernel(x,   0.0  , 0.0  , 0.0  , 0.0  , 0.0  , 0.0 );
                        kernels[515] = compute_kernel(x,   0.0  , 0.0  , 0.0  , 0.0  , 0.0  , 0.0 );
                        kernels[516] = compute_kernel(x,   0.0  , 0.0  , 0.0  , 0.0  , 0.0  , 0.0 );
                        kernels[517] = compute_kernel(x,   0.0  , 0.0  , 0.0  , 0.0  , 0.0  , 0.0 );
                        kernels[518] = compute_kernel(x,   0.0  , 0.0  , 0.0  , 0.0  , 0.0  , 0.0 );
                        kernels[519] = compute_kernel(x,   0.0  , 0.0  , 0.0  , 0.0  , 0.0  , 0.0 );
                        kernels[520] = compute_kernel(x,   0.0  , 0.0  , 0.0  , 0.0  , 0.0  , 0.0 );
                        kernels[521] = compute_kernel(x,   0.0  , 0.0  , 0.0  , 0.0  , 0.0  , 0.0 );
                        kernels[522] = compute_kernel(x,   0.0  , 0.0  , 0.0  , 0.0  , 0.0  , 0.0 );
                        kernels[523] = compute_kernel(x,   0.0  , 0.0  , 0.0  , 0.0  , 0.0  , 0.0 );
                        kernels[524] = compute_kernel(x,   0.0  , 0.0  , 0.0  , 0.0  , 0.0  , 0.0 );
                        kernels[525] = compute_kernel(x,   0.0  , 0.0  , 0.0  , 0.0  , 0.0  , 0.0 );
                        kernels[526] = compute_kernel(x,   0.0  , 0.0  , 0.0  , 0.0  , 0.0  , 0.0 );
                        kernels[527] = compute_kernel(x,   0.0  , 0.0  , 0.0  , 0.0  , 0.0  , 0.0 );
                        kernels[528] = compute_kernel(x,   0.0  , 0.0  , 0.0  , 0.0  , 0.0  , 0.0 );
                        kernels[529] = compute_kernel(x,   0.0  , 0.0  , 0.0  , 0.0  , 0.0  , 0.0 );
                        kernels[530] = compute_kernel(x,   0.0  , 0.0  , 0.0  , 0.0  , 0.0  , 0.0 );
                        kernels[531] = compute_kernel(x,   0.0  , 0.0  , 0.0  , 0.0  , 0.0  , 0.0 );
                        kernels[532] = compute_kernel(x,   0.0  , 0.0  , 0.0  , 0.0  , 0.0  , 0.0 );
                        kernels[533] = compute_kernel(x,   0.0  , 0.0  , 0.0  , 0.0  , 0.0  , 0.0 );
                        kernels[534] = compute_kernel(x,   0.0  , 0.0  , 0.0  , 0.0  , 0.0  , 0.0 );
                        kernels[535] = compute_kernel(x,   0.0  , 0.0  , 0.0  , 0.0  , 0.0  , 0.0 );
                        kernels[536] = compute_kernel(x,   0.0  , 0.0  , 0.0  , 0.0  , 0.0  , 0.0 );
                        kernels[537] = compute_kernel(x,   0.0  , 0.0  , 0.0  , 0.0  , 0.0  , 0.0 );
                        kernels[538] = compute_kernel(x,   0.0  , 0.0  , 0.0  , 0.0  , 0.0  , 0.0 );
                        kernels[539] = compute_kernel(x,   0.0  , 0.0  , 0.0  , 0.0  , 0.0  , 0.0 );
                        kernels[540] = compute_kernel(x,   0.0  , 0.0  , 0.0  , 0.0  , 0.0  , 0.0 );
                        kernels[541] = compute_kernel(x,   0.0  , 0.0  , 0.0  , 0.0  , 0.0  , 0.0 );
                        kernels[542] = compute_kernel(x,   0.0  , 0.0  , 0.0  , 0.0  , 0.0  , 0.0 );
                        kernels[543] = compute_kernel(x,   0.0  , 0.0  , 0.0  , 0.0  , 0.0  , 0.0 );
                        kernels[544] = compute_kernel(x,   0.0  , 0.0  , 0.0  , 0.0  , 0.0  , 0.0 );
                        kernels[545] = compute_kernel(x,   0.0  , 0.0  , 0.0  , 0.0  , 0.0  , 0.0 );
                        kernels[546] = compute_kernel(x,   0.0  , 0.0  , 0.0  , 0.0  , 0.0  , 0.0 );
                        kernels[547] = compute_kernel(x,   0.0  , 0.0  , 0.0  , 0.0  , 0.0  , 0.0 );
                        kernels[548] = compute_kernel(x,   0.0  , 0.0  , 0.0  , 0.0  , 0.0  , 0.0 );
                        kernels[549] = compute_kernel(x,   0.0  , 0.0  , 0.0  , 0.0  , 0.0  , 0.0 );
                        kernels[550] = compute_kernel(x,   0.0  , 0.0  , 0.0  , 0.0  , 0.0  , 0.0 );
                        kernels[551] = compute_kernel(x,   0.0  , 0.0  , 0.0  , 0.0  , 0.0  , 0.0 );
                        kernels[552] = compute_kernel(x,   33.0  , 58.0  , 65.0  , 16.0  , 2.0  , 0.0 );
                        kernels[553] = compute_kernel(x,   0.0  , 0.0  , 0.0  , 0.0  , 0.0  , 0.0 );
                        kernels[554] = compute_kernel(x,   0.0  , 0.0  , 0.0  , 0.0  , 0.0  , 0.0 );
                        kernels[555] = compute_kernel(x,   0.0  , 0.0  , 0.0  , 0.0  , 0.0  , 0.0 );
                        kernels[556] = compute_kernel(x,   0.0  , 0.0  , 0.0  , 0.0  , 0.0  , 0.0 );
                        kernels[557] = compute_kernel(x,   0.0  , 0.0  , 0.0  , 0.0  , 0.0  , 0.0 );
                        kernels[558] = compute_kernel(x,   0.0  , 0.0  , 0.0  , 0.0  , 0.0  , 0.0 );
                        kernels[559] = compute_kernel(x,   0.0  , 0.0  , 0.0  , 0.0  , 0.0  , 0.0 );
                        kernels[560] = compute_kernel(x,   0.0  , 0.0  , 0.0  , 0.0  , 0.0  , 0.0 );
                        kernels[561] = compute_kernel(x,   0.0  , 0.0  , 0.0  , 0.0  , 0.0  , 0.0 );
                        kernels[562] = compute_kernel(x,   0.0  , 0.0  , 0.0  , 0.0  , 0.0  , 0.0 );
                        kernels[563] = compute_kernel(x,   0.0  , 0.0  , 0.0  , 0.0  , 0.0  , 0.0 );
                        kernels[564] = compute_kernel(x,   0.0  , 0.0  , 0.0  , 0.0  , 0.0  , 0.0 );
                        kernels[565] = compute_kernel(x,   0.0  , 0.0  , 0.0  , 0.0  , 0.0  , 0.0 );
                        kernels[566] = compute_kernel(x,   0.0  , 0.0  , 0.0  , 0.0  , 0.0  , 0.0 );
                        kernels[567] = compute_kernel(x,   0.0  , 0.0  , 0.0  , 0.0  , 0.0  , 0.0 );
                        kernels[568] = compute_kernel(x,   0.0  , 0.0  , 0.0  , 0.0  , 0.0  , 0.0 );
                        kernels[569] = compute_kernel(x,   0.0  , 0.0  , 0.0  , 0.0  , 0.0  , 0.0 );
                        kernels[570] = compute_kernel(x,   0.0  , 0.0  , 0.0  , 0.0  , 0.0  , 0.0 );
                        kernels[571] = compute_kernel(x,   0.0  , 0.0  , 0.0  , 0.0  , 0.0  , 0.0 );
                        kernels[572] = compute_kernel(x,   0.0  , 0.0  , 0.0  , 0.0  , 0.0  , 0.0 );
                        kernels[573] = compute_kernel(x,   0.0  , 0.0  , 0.0  , 0.0  , 0.0  , 0.0 );
                        kernels[574] = compute_kernel(x,   0.0  , 0.0  , 0.0  , 0.0  , 0.0  , 0.0 );
                        kernels[575] = compute_kernel(x,   0.0  , 0.0  , 0.0  , 0.0  , 0.0  , 0.0 );
                        kernels[576] = compute_kernel(x,   0.0  , 0.0  , 0.0  , 0.0  , 0.0  , 0.0 );
                        kernels[577] = compute_kernel(x,   0.0  , 0.0  , 0.0  , 0.0  , 0.0  , 0.0 );
                        kernels[578] = compute_kernel(x,   0.0  , 0.0  , 0.0  , 0.0  , 0.0  , 0.0 );
                        kernels[579] = compute_kernel(x,   0.0  , 0.0  , 0.0  , 0.0  , 0.0  , 0.0 );
                        kernels[580] = compute_kernel(x,   0.0  , 0.0  , 0.0  , 0.0  , 0.0  , 0.0 );
                        kernels[581] = compute_kernel(x,   0.0  , 0.0  , 0.0  , 0.0  , 0.0  , 0.0 );
                        kernels[582] = compute_kernel(x,   0.0  , 0.0  , 0.0  , 0.0  , 0.0  , 0.0 );
                        kernels[583] = compute_kernel(x,   0.0  , 0.0  , 0.0  , 0.0  , 0.0  , 0.0 );
                        kernels[584] = compute_kernel(x,   0.0  , 0.0  , 0.0  , 0.0  , 0.0  , 0.0 );
                        kernels[585] = compute_kernel(x,   0.0  , 0.0  , 0.0  , 0.0  , 0.0  , 0.0 );
                        kernels[586] = compute_kernel(x,   0.0  , 0.0  , 0.0  , 0.0  , 0.0  , 0.0 );
                        kernels[587] = compute_kernel(x,   0.0  , 0.0  , 0.0  , 0.0  , 0.0  , 0.0 );
                        kernels[588] = compute_kernel(x,   0.0  , 0.0  , 0.0  , 0.0  , 0.0  , 0.0 );
                        kernels[589] = compute_kernel(x,   0.0  , 0.0  , 0.0  , 0.0  , 0.0  , 0.0 );
                        kernels[590] = compute_kernel(x,   0.0  , 0.0  , 0.0  , 0.0  , 0.0  , 0.0 );
                        kernels[591] = compute_kernel(x,   0.0  , 0.0  , 0.0  , 0.0  , 0.0  , 0.0 );
                        kernels[592] = compute_kernel(x,   0.0  , 0.0  , 0.0  , 0.0  , 0.0  , 0.0 );
                        kernels[593] = compute_kernel(x,   0.0  , 0.0  , 0.0  , 0.0  , 0.0  , 0.0 );
                        kernels[594] = compute_kernel(x,   0.0  , 0.0  , 0.0  , 0.0  , 0.0  , 0.0 );
                        kernels[595] = compute_kernel(x,   0.0  , 0.0  , 0.0  , 0.0  , 0.0  , 0.0 );
                        kernels[596] = compute_kernel(x,   0.0  , 0.0  , 0.0  , 0.0  , 0.0  , 0.0 );
                        kernels[597] = compute_kernel(x,   0.0  , 0.0  , 0.0  , 0.0  , 0.0  , 0.0 );
                        kernels[598] = compute_kernel(x,   35.0  , 58.0  , 49.0  , 26.0  , 1.0  , 0.0 );
                        kernels[599] = compute_kernel(x,   0.0  , 0.0  , 0.0  , 0.0  , 0.0  , 0.0 );
                        kernels[600] = compute_kernel(x,   0.0  , 0.0  , 0.0  , 0.0  , 0.0  , 0.0 );
                        kernels[601] = compute_kernel(x,   0.0  , 0.0  , 0.0  , 0.0  , 0.0  , 0.0 );
                        kernels[602] = compute_kernel(x,   0.0  , 0.0  , 0.0  , 0.0  , 0.0  , 0.0 );
                        kernels[603] = compute_kernel(x,   0.0  , 0.0  , 0.0  , 0.0  , 0.0  , 0.0 );
                        kernels[604] = compute_kernel(x,   0.0  , 0.0  , 0.0  , 0.0  , 0.0  , 0.0 );
                        kernels[605] = compute_kernel(x,   0.0  , 0.0  , 0.0  , 0.0  , 0.0  , 0.0 );
                        kernels[606] = compute_kernel(x,   0.0  , 0.0  , 0.0  , 0.0  , 0.0  , 0.0 );
                        kernels[607] = compute_kernel(x,   0.0  , 0.0  , 0.0  , 0.0  , 0.0  , 0.0 );
                        kernels[608] = compute_kernel(x,   0.0  , 0.0  , 0.0  , 0.0  , 0.0  , 0.0 );
                        kernels[609] = compute_kernel(x,   0.0  , 0.0  , 0.0  , 0.0  , 0.0  , 0.0 );
                        kernels[610] = compute_kernel(x,   0.0  , 0.0  , 0.0  , 0.0  , 0.0  , 0.0 );
                        kernels[611] = compute_kernel(x,   0.0  , 0.0  , 0.0  , 0.0  , 0.0  , 0.0 );
                        kernels[612] = compute_kernel(x,   0.0  , 0.0  , 0.0  , 0.0  , 0.0  , 0.0 );
                        kernels[613] = compute_kernel(x,   0.0  , 0.0  , 0.0  , 0.0  , 0.0  , 0.0 );
                        kernels[614] = compute_kernel(x,   0.0  , 0.0  , 0.0  , 0.0  , 0.0  , 0.0 );
                        kernels[615] = compute_kernel(x,   0.0  , 0.0  , 0.0  , 0.0  , 0.0  , 0.0 );
                        kernels[616] = compute_kernel(x,   0.0  , 0.0  , 0.0  , 0.0  , 0.0  , 0.0 );
                        kernels[617] = compute_kernel(x,   0.0  , 0.0  , 0.0  , 0.0  , 0.0  , 0.0 );
                        kernels[618] = compute_kernel(x,   0.0  , 0.0  , 0.0  , 0.0  , 0.0  , 0.0 );
                        kernels[619] = compute_kernel(x,   0.0  , 0.0  , 0.0  , 0.0  , 0.0  , 0.0 );
                        kernels[620] = compute_kernel(x,   0.0  , 0.0  , 0.0  , 0.0  , 0.0  , 0.0 );
                        kernels[621] = compute_kernel(x,   0.0  , 0.0  , 0.0  , 0.0  , 0.0  , 0.0 );
                        kernels[622] = compute_kernel(x,   0.0  , 0.0  , 0.0  , 0.0  , 0.0  , 0.0 );
                        kernels[623] = compute_kernel(x,   0.0  , 0.0  , 0.0  , 0.0  , 0.0  , 0.0 );
                        kernels[624] = compute_kernel(x,   0.0  , 0.0  , 0.0  , 0.0  , 0.0  , 0.0 );
                        kernels[625] = compute_kernel(x,   0.0  , 0.0  , 0.0  , 0.0  , 0.0  , 0.0 );
                        kernels[626] = compute_kernel(x,   0.0  , 0.0  , 0.0  , 0.0  , 0.0  , 0.0 );
                        kernels[627] = compute_kernel(x,   0.0  , 0.0  , 0.0  , 0.0  , 0.0  , 0.0 );
                        kernels[628] = compute_kernel(x,   0.0  , 0.0  , 0.0  , 0.0  , 0.0  , 0.0 );
                        kernels[629] = compute_kernel(x,   0.0  , 0.0  , 0.0  , 0.0  , 0.0  , 0.0 );
                        kernels[630] = compute_kernel(x,   0.0  , 0.0  , 0.0  , 0.0  , 0.0  , 0.0 );
                        kernels[631] = compute_kernel(x,   0.0  , 0.0  , 0.0  , 0.0  , 0.0  , 0.0 );
                        kernels[632] = compute_kernel(x,   0.0  , 0.0  , 0.0  , 0.0  , 0.0  , 0.0 );
                        kernels[633] = compute_kernel(x,   0.0  , 0.0  , 0.0  , 0.0  , 0.0  , 0.0 );
                        kernels[634] = compute_kernel(x,   0.0  , 0.0  , 0.0  , 0.0  , 0.0  , 0.0 );
                        kernels[635] = compute_kernel(x,   0.0  , 0.0  , 0.0  , 0.0  , 0.0  , 0.0 );
                        kernels[636] = compute_kernel(x,   0.0  , 0.0  , 0.0  , 0.0  , 0.0  , 0.0 );
                        kernels[637] = compute_kernel(x,   0.0  , 0.0  , 0.0  , 0.0  , 0.0  , 0.0 );
                        kernels[638] = compute_kernel(x,   0.0  , 0.0  , 0.0  , 0.0  , 0.0  , 0.0 );
                        kernels[639] = compute_kernel(x,   0.0  , 0.0  , 0.0  , 0.0  , 0.0  , 0.0 );
                        kernels[640] = compute_kernel(x,   0.0  , 0.0  , 0.0  , 0.0  , 0.0  , 0.0 );
                        kernels[641] = compute_kernel(x,   0.0  , 0.0  , 0.0  , 0.0  , 0.0  , 0.0 );
                        kernels[642] = compute_kernel(x,   0.0  , 0.0  , 0.0  , 0.0  , 0.0  , 0.0 );
                        kernels[643] = compute_kernel(x,   0.0  , 0.0  , 0.0  , 0.0  , 0.0  , 0.0 );
                        kernels[644] = compute_kernel(x,   15.0  , 57.0  , 59.0  , 28.0  , 3.0  , 0.0 );
                        kernels[645] = compute_kernel(x,   0.0  , 0.0  , 0.0  , 0.0  , 0.0  , 0.0 );
                        kernels[646] = compute_kernel(x,   0.0  , 0.0  , 0.0  , 0.0  , 0.0  , 0.0 );
                        kernels[647] = compute_kernel(x,   0.0  , 0.0  , 0.0  , 0.0  , 0.0  , 0.0 );
                        kernels[648] = compute_kernel(x,   0.0  , 0.0  , 0.0  , 0.0  , 0.0  , 0.0 );
                        kernels[649] = compute_kernel(x,   0.0  , 0.0  , 0.0  , 0.0  , 0.0  , 0.0 );
                        kernels[650] = compute_kernel(x,   0.0  , 0.0  , 0.0  , 0.0  , 0.0  , 0.0 );
                        kernels[651] = compute_kernel(x,   0.0  , 0.0  , 0.0  , 0.0  , 0.0  , 0.0 );
                        kernels[652] = compute_kernel(x,   0.0  , 0.0  , 0.0  , 0.0  , 0.0  , 0.0 );
                        kernels[653] = compute_kernel(x,   0.0  , 0.0  , 0.0  , 0.0  , 0.0  , 0.0 );
                        kernels[654] = compute_kernel(x,   0.0  , 0.0  , 0.0  , 0.0  , 0.0  , 0.0 );
                        kernels[655] = compute_kernel(x,   0.0  , 0.0  , 0.0  , 0.0  , 0.0  , 0.0 );
                        kernels[656] = compute_kernel(x,   0.0  , 0.0  , 0.0  , 0.0  , 0.0  , 0.0 );
                        kernels[657] = compute_kernel(x,   0.0  , 0.0  , 0.0  , 0.0  , 0.0  , 0.0 );
                        kernels[658] = compute_kernel(x,   0.0  , 0.0  , 0.0  , 0.0  , 0.0  , 0.0 );
                        kernels[659] = compute_kernel(x,   0.0  , 0.0  , 0.0  , 0.0  , 0.0  , 0.0 );
                        kernels[660] = compute_kernel(x,   0.0  , 0.0  , 0.0  , 0.0  , 0.0  , 0.0 );
                        kernels[661] = compute_kernel(x,   0.0  , 0.0  , 0.0  , 0.0  , 0.0  , 0.0 );
                        kernels[662] = compute_kernel(x,   0.0  , 0.0  , 0.0  , 0.0  , 0.0  , 0.0 );
                        kernels[663] = compute_kernel(x,   0.0  , 0.0  , 0.0  , 0.0  , 0.0  , 0.0 );
                        kernels[664] = compute_kernel(x,   0.0  , 0.0  , 0.0  , 0.0  , 0.0  , 0.0 );
                        kernels[665] = compute_kernel(x,   0.0  , 0.0  , 0.0  , 0.0  , 0.0  , 0.0 );
                        kernels[666] = compute_kernel(x,   0.0  , 0.0  , 0.0  , 0.0  , 0.0  , 0.0 );
                        kernels[667] = compute_kernel(x,   0.0  , 0.0  , 0.0  , 0.0  , 0.0  , 0.0 );
                        kernels[668] = compute_kernel(x,   0.0  , 0.0  , 0.0  , 0.0  , 0.0  , 0.0 );
                        kernels[669] = compute_kernel(x,   0.0  , 0.0  , 0.0  , 0.0  , 0.0  , 0.0 );
                        kernels[670] = compute_kernel(x,   0.0  , 0.0  , 0.0  , 0.0  , 0.0  , 0.0 );
                        kernels[671] = compute_kernel(x,   0.0  , 0.0  , 0.0  , 0.0  , 0.0  , 0.0 );
                        kernels[672] = compute_kernel(x,   0.0  , 0.0  , 0.0  , 0.0  , 0.0  , 0.0 );
                        kernels[673] = compute_kernel(x,   0.0  , 0.0  , 0.0  , 0.0  , 0.0  , 0.0 );
                        kernels[674] = compute_kernel(x,   0.0  , 0.0  , 0.0  , 0.0  , 0.0  , 0.0 );
                        kernels[675] = compute_kernel(x,   0.0  , 0.0  , 0.0  , 0.0  , 0.0  , 0.0 );
                        kernels[676] = compute_kernel(x,   0.0  , 0.0  , 0.0  , 0.0  , 0.0  , 0.0 );
                        kernels[677] = compute_kernel(x,   0.0  , 0.0  , 0.0  , 0.0  , 0.0  , 0.0 );
                        kernels[678] = compute_kernel(x,   0.0  , 0.0  , 0.0  , 0.0  , 0.0  , 0.0 );
                        kernels[679] = compute_kernel(x,   0.0  , 0.0  , 0.0  , 0.0  , 0.0  , 0.0 );
                        kernels[680] = compute_kernel(x,   0.0  , 0.0  , 0.0  , 0.0  , 0.0  , 0.0 );
                        kernels[681] = compute_kernel(x,   0.0  , 0.0  , 0.0  , 0.0  , 0.0  , 0.0 );
                        kernels[682] = compute_kernel(x,   0.0  , 0.0  , 0.0  , 0.0  , 0.0  , 0.0 );
                        kernels[683] = compute_kernel(x,   0.0  , 0.0  , 0.0  , 0.0  , 0.0  , 0.0 );
                        kernels[684] = compute_kernel(x,   0.0  , 0.0  , 0.0  , 0.0  , 0.0  , 0.0 );
                        kernels[685] = compute_kernel(x,   0.0  , 0.0  , 0.0  , 0.0  , 0.0  , 0.0 );
                        kernels[686] = compute_kernel(x,   0.0  , 0.0  , 0.0  , 0.0  , 0.0  , 0.0 );
                        kernels[687] = compute_kernel(x,   0.0  , 0.0  , 0.0  , 0.0  , 0.0  , 0.0 );
                        kernels[688] = compute_kernel(x,   0.0  , 0.0  , 0.0  , 0.0  , 0.0  , 0.0 );
                        kernels[689] = compute_kernel(x,   0.0  , 0.0  , 0.0  , 0.0  , 0.0  , 0.0 );
                        kernels[690] = compute_kernel(x,   24.0  , 49.0  , 50.0  , 36.0  , 5.0  , 0.0 );
                        kernels[691] = compute_kernel(x,   0.0  , 0.0  , 0.0  , 0.0  , 0.0  , 0.0 );
                        kernels[692] = compute_kernel(x,   0.0  , 0.0  , 0.0  , 0.0  , 0.0  , 0.0 );
                        kernels[693] = compute_kernel(x,   0.0  , 0.0  , 0.0  , 0.0  , 0.0  , 0.0 );
                        kernels[694] = compute_kernel(x,   0.0  , 0.0  , 0.0  , 0.0  , 0.0  , 0.0 );
                        kernels[695] = compute_kernel(x,   0.0  , 0.0  , 0.0  , 0.0  , 0.0  , 0.0 );
                        kernels[696] = compute_kernel(x,   0.0  , 0.0  , 0.0  , 0.0  , 0.0  , 0.0 );
                        kernels[697] = compute_kernel(x,   0.0  , 0.0  , 0.0  , 0.0  , 0.0  , 0.0 );
                        kernels[698] = compute_kernel(x,   0.0  , 0.0  , 0.0  , 0.0  , 0.0  , 0.0 );
                        kernels[699] = compute_kernel(x,   0.0  , 0.0  , 0.0  , 0.0  , 0.0  , 0.0 );
                        kernels[700] = compute_kernel(x,   0.0  , 0.0  , 0.0  , 0.0  , 0.0  , 0.0 );
                        kernels[701] = compute_kernel(x,   0.0  , 0.0  , 0.0  , 0.0  , 0.0  , 0.0 );
                        kernels[702] = compute_kernel(x,   0.0  , 0.0  , 0.0  , 0.0  , 0.0  , 0.0 );
                        kernels[703] = compute_kernel(x,   0.0  , 0.0  , 0.0  , 0.0  , 0.0  , 0.0 );
                        kernels[704] = compute_kernel(x,   0.0  , 0.0  , 0.0  , 0.0  , 0.0  , 0.0 );
                        kernels[705] = compute_kernel(x,   0.0  , 0.0  , 0.0  , 0.0  , 0.0  , 0.0 );
                        kernels[706] = compute_kernel(x,   0.0  , 0.0  , 0.0  , 0.0  , 0.0  , 0.0 );
                        kernels[707] = compute_kernel(x,   0.0  , 0.0  , 0.0  , 0.0  , 0.0  , 0.0 );
                        kernels[708] = compute_kernel(x,   0.0  , 0.0  , 0.0  , 0.0  , 0.0  , 0.0 );
                        kernels[709] = compute_kernel(x,   0.0  , 0.0  , 0.0  , 0.0  , 0.0  , 0.0 );
                        kernels[710] = compute_kernel(x,   0.0  , 0.0  , 0.0  , 0.0  , 0.0  , 0.0 );
                        kernels[711] = compute_kernel(x,   0.0  , 0.0  , 0.0  , 0.0  , 0.0  , 0.0 );
                        kernels[712] = compute_kernel(x,   0.0  , 0.0  , 0.0  , 0.0  , 0.0  , 0.0 );
                        kernels[713] = compute_kernel(x,   0.0  , 0.0  , 0.0  , 0.0  , 0.0  , 0.0 );
                        kernels[714] = compute_kernel(x,   0.0  , 0.0  , 0.0  , 0.0  , 0.0  , 0.0 );
                        kernels[715] = compute_kernel(x,   0.0  , 0.0  , 0.0  , 0.0  , 0.0  , 0.0 );
                        kernels[716] = compute_kernel(x,   0.0  , 0.0  , 0.0  , 0.0  , 0.0  , 0.0 );
                        kernels[717] = compute_kernel(x,   0.0  , 0.0  , 0.0  , 0.0  , 0.0  , 0.0 );
                        kernels[718] = compute_kernel(x,   0.0  , 0.0  , 0.0  , 0.0  , 0.0  , 0.0 );
                        kernels[719] = compute_kernel(x,   0.0  , 0.0  , 0.0  , 0.0  , 0.0  , 0.0 );
                        kernels[720] = compute_kernel(x,   0.0  , 0.0  , 0.0  , 0.0  , 0.0  , 0.0 );
                        kernels[721] = compute_kernel(x,   0.0  , 0.0  , 0.0  , 0.0  , 0.0  , 0.0 );
                        kernels[722] = compute_kernel(x,   0.0  , 0.0  , 0.0  , 0.0  , 0.0  , 0.0 );
                        kernels[723] = compute_kernel(x,   0.0  , 0.0  , 0.0  , 0.0  , 0.0  , 0.0 );
                        kernels[724] = compute_kernel(x,   0.0  , 0.0  , 0.0  , 0.0  , 0.0  , 0.0 );
                        kernels[725] = compute_kernel(x,   0.0  , 0.0  , 0.0  , 0.0  , 0.0  , 0.0 );
                        kernels[726] = compute_kernel(x,   0.0  , 0.0  , 0.0  , 0.0  , 0.0  , 0.0 );
                        kernels[727] = compute_kernel(x,   0.0  , 0.0  , 0.0  , 0.0  , 0.0  , 0.0 );
                        kernels[728] = compute_kernel(x,   0.0  , 0.0  , 0.0  , 0.0  , 0.0  , 0.0 );
                        kernels[729] = compute_kernel(x,   0.0  , 0.0  , 0.0  , 0.0  , 0.0  , 0.0 );
                        kernels[730] = compute_kernel(x,   0.0  , 0.0  , 0.0  , 0.0  , 0.0  , 0.0 );
                        kernels[731] = compute_kernel(x,   0.0  , 0.0  , 0.0  , 0.0  , 0.0  , 0.0 );
                        kernels[732] = compute_kernel(x,   0.0  , 0.0  , 0.0  , 0.0  , 0.0  , 0.0 );
                        kernels[733] = compute_kernel(x,   0.0  , 0.0  , 0.0  , 0.0  , 0.0  , 0.0 );
                        kernels[734] = compute_kernel(x,   0.0  , 0.0  , 0.0  , 0.0  , 0.0  , 0.0 );
                        kernels[735] = compute_kernel(x,   0.0  , 0.0  , 0.0  , 0.0  , 0.0  , 0.0 );
                        kernels[736] = compute_kernel(x,   20.0  , 47.0  , 56.0  , 33.0  , 9.0  , 1.0 );
                        kernels[737] = compute_kernel(x,   0.0  , 0.0  , 0.0  , 0.0  , 0.0  , 0.0 );
                        kernels[738] = compute_kernel(x,   0.0  , 0.0  , 0.0  , 0.0  , 0.0  , 0.0 );
                        kernels[739] = compute_kernel(x,   0.0  , 0.0  , 0.0  , 0.0  , 0.0  , 0.0 );
                        kernels[740] = compute_kernel(x,   0.0  , 0.0  , 0.0  , 0.0  , 0.0  , 0.0 );
                        kernels[741] = compute_kernel(x,   0.0  , 0.0  , 0.0  , 0.0  , 0.0  , 0.0 );
                        kernels[742] = compute_kernel(x,   0.0  , 0.0  , 0.0  , 0.0  , 0.0  , 0.0 );
                        kernels[743] = compute_kernel(x,   0.0  , 0.0  , 0.0  , 0.0  , 0.0  , 0.0 );
                        kernels[744] = compute_kernel(x,   0.0  , 0.0  , 0.0  , 0.0  , 0.0  , 0.0 );
                        kernels[745] = compute_kernel(x,   0.0  , 0.0  , 0.0  , 0.0  , 0.0  , 0.0 );
                        kernels[746] = compute_kernel(x,   0.0  , 0.0  , 0.0  , 0.0  , 0.0  , 0.0 );
                        kernels[747] = compute_kernel(x,   0.0  , 0.0  , 0.0  , 0.0  , 0.0  , 0.0 );
                        kernels[748] = compute_kernel(x,   0.0  , 0.0  , 0.0  , 0.0  , 0.0  , 0.0 );
                        kernels[749] = compute_kernel(x,   0.0  , 0.0  , 0.0  , 0.0  , 0.0  , 0.0 );
                        kernels[750] = compute_kernel(x,   0.0  , 0.0  , 0.0  , 0.0  , 0.0  , 0.0 );
                        kernels[751] = compute_kernel(x,   0.0  , 0.0  , 0.0  , 0.0  , 0.0  , 0.0 );
                        kernels[752] = compute_kernel(x,   0.0  , 0.0  , 0.0  , 0.0  , 0.0  , 0.0 );
                        kernels[753] = compute_kernel(x,   0.0  , 0.0  , 0.0  , 0.0  , 0.0  , 0.0 );
                        kernels[754] = compute_kernel(x,   0.0  , 0.0  , 0.0  , 0.0  , 0.0  , 0.0 );
                        kernels[755] = compute_kernel(x,   0.0  , 0.0  , 0.0  , 0.0  , 0.0  , 0.0 );
                        kernels[756] = compute_kernel(x,   0.0  , 0.0  , 0.0  , 0.0  , 0.0  , 0.0 );
                        kernels[757] = compute_kernel(x,   0.0  , 0.0  , 0.0  , 0.0  , 0.0  , 0.0 );
                        kernels[758] = compute_kernel(x,   0.0  , 0.0  , 0.0  , 0.0  , 0.0  , 0.0 );
                        kernels[759] = compute_kernel(x,   0.0  , 0.0  , 0.0  , 0.0  , 0.0  , 0.0 );
                        kernels[760] = compute_kernel(x,   0.0  , 0.0  , 0.0  , 0.0  , 0.0  , 0.0 );
                        kernels[761] = compute_kernel(x,   0.0  , 0.0  , 0.0  , 0.0  , 0.0  , 0.0 );
                        kernels[762] = compute_kernel(x,   0.0  , 0.0  , 0.0  , 0.0  , 0.0  , 0.0 );
                        kernels[763] = compute_kernel(x,   0.0  , 0.0  , 0.0  , 0.0  , 0.0  , 0.0 );
                        kernels[764] = compute_kernel(x,   0.0  , 0.0  , 0.0  , 0.0  , 0.0  , 0.0 );
                        kernels[765] = compute_kernel(x,   0.0  , 0.0  , 0.0  , 0.0  , 0.0  , 0.0 );
                        kernels[766] = compute_kernel(x,   0.0  , 0.0  , 0.0  , 0.0  , 0.0  , 0.0 );
                        kernels[767] = compute_kernel(x,   0.0  , 0.0  , 0.0  , 0.0  , 0.0  , 0.0 );
                        kernels[768] = compute_kernel(x,   0.0  , 0.0  , 0.0  , 0.0  , 0.0  , 0.0 );
                        kernels[769] = compute_kernel(x,   0.0  , 0.0  , 0.0  , 0.0  , 0.0  , 0.0 );
                        kernels[770] = compute_kernel(x,   0.0  , 0.0  , 0.0  , 0.0  , 0.0  , 0.0 );
                        kernels[771] = compute_kernel(x,   0.0  , 0.0  , 0.0  , 0.0  , 0.0  , 0.0 );
                        kernels[772] = compute_kernel(x,   0.0  , 0.0  , 0.0  , 0.0  , 0.0  , 0.0 );
                        kernels[773] = compute_kernel(x,   0.0  , 0.0  , 0.0  , 0.0  , 0.0  , 0.0 );
                        kernels[774] = compute_kernel(x,   0.0  , 0.0  , 0.0  , 0.0  , 0.0  , 0.0 );
                        kernels[775] = compute_kernel(x,   0.0  , 0.0  , 0.0  , 0.0  , 0.0  , 0.0 );
                        kernels[776] = compute_kernel(x,   0.0  , 0.0  , 0.0  , 0.0  , 0.0  , 0.0 );
                        kernels[777] = compute_kernel(x,   0.0  , 0.0  , 0.0  , 0.0  , 0.0  , 0.0 );
                        kernels[778] = compute_kernel(x,   0.0  , 0.0  , 0.0  , 0.0  , 0.0  , 0.0 );
                        kernels[779] = compute_kernel(x,   0.0  , 0.0  , 0.0  , 0.0  , 0.0  , 0.0 );
                        kernels[780] = compute_kernel(x,   0.0  , 0.0  , 0.0  , 0.0  , 0.0  , 0.0 );
                        kernels[781] = compute_kernel(x,   0.0  , 0.0  , 0.0  , 0.0  , 0.0  , 0.0 );
                        kernels[782] = compute_kernel(x,   7.0  , 53.0  , 66.0  , 34.0  , 11.0  , 1.0 );
                        kernels[783] = compute_kernel(x,   0.0  , 0.0  , 0.0  , 0.0  , 0.0  , 0.0 );
                        kernels[784] = compute_kernel(x,   0.0  , 0.0  , 0.0  , 0.0  , 0.0  , 0.0 );
                        kernels[785] = compute_kernel(x,   0.0  , 0.0  , 0.0  , 0.0  , 0.0  , 0.0 );
                        kernels[786] = compute_kernel(x,   0.0  , 0.0  , 0.0  , 0.0  , 0.0  , 0.0 );
                        kernels[787] = compute_kernel(x,   0.0  , 0.0  , 0.0  , 0.0  , 0.0  , 0.0 );
                        kernels[788] = compute_kernel(x,   0.0  , 0.0  , 0.0  , 0.0  , 0.0  , 0.0 );
                        kernels[789] = compute_kernel(x,   0.0  , 0.0  , 0.0  , 0.0  , 0.0  , 0.0 );
                        kernels[790] = compute_kernel(x,   0.0  , 0.0  , 0.0  , 0.0  , 0.0  , 0.0 );
                        kernels[791] = compute_kernel(x,   0.0  , 0.0  , 0.0  , 0.0  , 0.0  , 0.0 );
                        kernels[792] = compute_kernel(x,   0.0  , 0.0  , 0.0  , 0.0  , 0.0  , 0.0 );
                        kernels[793] = compute_kernel(x,   0.0  , 0.0  , 0.0  , 0.0  , 0.0  , 0.0 );
                        kernels[794] = compute_kernel(x,   0.0  , 0.0  , 0.0  , 0.0  , 0.0  , 0.0 );
                        kernels[795] = compute_kernel(x,   0.0  , 0.0  , 0.0  , 0.0  , 0.0  , 0.0 );
                        kernels[796] = compute_kernel(x,   0.0  , 0.0  , 0.0  , 0.0  , 0.0  , 0.0 );
                        kernels[797] = compute_kernel(x,   0.0  , 0.0  , 0.0  , 0.0  , 0.0  , 0.0 );
                        kernels[798] = compute_kernel(x,   0.0  , 0.0  , 0.0  , 0.0  , 0.0  , 0.0 );
                        kernels[799] = compute_kernel(x,   0.0  , 0.0  , 0.0  , 0.0  , 0.0  , 0.0 );
                        kernels[800] = compute_kernel(x,   0.0  , 0.0  , 0.0  , 0.0  , 0.0  , 0.0 );
                        kernels[801] = compute_kernel(x,   0.0  , 0.0  , 0.0  , 0.0  , 0.0  , 0.0 );
                        kernels[802] = compute_kernel(x,   0.0  , 0.0  , 0.0  , 0.0  , 0.0  , 0.0 );
                        kernels[803] = compute_kernel(x,   0.0  , 0.0  , 0.0  , 0.0  , 0.0  , 0.0 );
                        kernels[804] = compute_kernel(x,   0.0  , 0.0  , 0.0  , 0.0  , 0.0  , 0.0 );
                        kernels[805] = compute_kernel(x,   0.0  , 0.0  , 0.0  , 0.0  , 0.0  , 0.0 );
                        kernels[806] = compute_kernel(x,   0.0  , 0.0  , 0.0  , 0.0  , 0.0  , 0.0 );
                        kernels[807] = compute_kernel(x,   0.0  , 0.0  , 0.0  , 0.0  , 0.0  , 0.0 );
                        kernels[808] = compute_kernel(x,   0.0  , 0.0  , 0.0  , 0.0  , 0.0  , 0.0 );
                        kernels[809] = compute_kernel(x,   0.0  , 0.0  , 0.0  , 0.0  , 0.0  , 0.0 );
                        kernels[810] = compute_kernel(x,   0.0  , 0.0  , 0.0  , 0.0  , 0.0  , 0.0 );
                        kernels[811] = compute_kernel(x,   0.0  , 0.0  , 0.0  , 0.0  , 0.0  , 0.0 );
                        kernels[812] = compute_kernel(x,   0.0  , 0.0  , 0.0  , 0.0  , 0.0  , 0.0 );
                        kernels[813] = compute_kernel(x,   0.0  , 0.0  , 0.0  , 0.0  , 0.0  , 0.0 );
                        kernels[814] = compute_kernel(x,   0.0  , 0.0  , 0.0  , 0.0  , 0.0  , 0.0 );
                        kernels[815] = compute_kernel(x,   0.0  , 0.0  , 0.0  , 0.0  , 0.0  , 0.0 );
                        kernels[816] = compute_kernel(x,   0.0  , 0.0  , 0.0  , 0.0  , 0.0  , 0.0 );
                        kernels[817] = compute_kernel(x,   0.0  , 0.0  , 0.0  , 0.0  , 0.0  , 0.0 );
                        kernels[818] = compute_kernel(x,   0.0  , 0.0  , 0.0  , 0.0  , 0.0  , 0.0 );
                        kernels[819] = compute_kernel(x,   0.0  , 0.0  , 0.0  , 0.0  , 0.0  , 0.0 );
                        kernels[820] = compute_kernel(x,   0.0  , 0.0  , 0.0  , 0.0  , 0.0  , 0.0 );
                        kernels[821] = compute_kernel(x,   0.0  , 0.0  , 0.0  , 0.0  , 0.0  , 0.0 );
                        kernels[822] = compute_kernel(x,   0.0  , 0.0  , 0.0  , 0.0  , 0.0  , 0.0 );
                        kernels[823] = compute_kernel(x,   0.0  , 0.0  , 0.0  , 0.0  , 0.0  , 0.0 );
                        kernels[824] = compute_kernel(x,   0.0  , 0.0  , 0.0  , 0.0  , 0.0  , 0.0 );
                        kernels[825] = compute_kernel(x,   0.0  , 0.0  , 0.0  , 0.0  , 0.0  , 0.0 );
                        kernels[826] = compute_kernel(x,   0.0  , 0.0  , 0.0  , 0.0  , 0.0  , 0.0 );
                        kernels[827] = compute_kernel(x,   0.0  , 0.0  , 0.0  , 0.0  , 0.0  , 0.0 );
                        kernels[828] = compute_kernel(x,   12.0  , 34.0  , 66.0  , 37.0  , 13.0  , 3.0 );
                        kernels[829] = compute_kernel(x,   0.0  , 0.0  , 0.0  , 0.0  , 0.0  , 0.0 );
                        kernels[830] = compute_kernel(x,   0.0  , 0.0  , 0.0  , 0.0  , 0.0  , 0.0 );
                        kernels[831] = compute_kernel(x,   0.0  , 0.0  , 0.0  , 0.0  , 0.0  , 0.0 );
                        kernels[832] = compute_kernel(x,   0.0  , 0.0  , 0.0  , 0.0  , 0.0  , 0.0 );
                        kernels[833] = compute_kernel(x,   0.0  , 0.0  , 0.0  , 0.0  , 0.0  , 0.0 );
                        kernels[834] = compute_kernel(x,   0.0  , 0.0  , 0.0  , 0.0  , 0.0  , 0.0 );
                        kernels[835] = compute_kernel(x,   0.0  , 0.0  , 0.0  , 0.0  , 0.0  , 0.0 );
                        kernels[836] = compute_kernel(x,   0.0  , 0.0  , 0.0  , 0.0  , 0.0  , 0.0 );
                        kernels[837] = compute_kernel(x,   0.0  , 0.0  , 0.0  , 0.0  , 0.0  , 0.0 );
                        kernels[838] = compute_kernel(x,   0.0  , 0.0  , 0.0  , 0.0  , 0.0  , 0.0 );
                        kernels[839] = compute_kernel(x,   0.0  , 0.0  , 0.0  , 0.0  , 0.0  , 0.0 );
                        kernels[840] = compute_kernel(x,   0.0  , 0.0  , 0.0  , 0.0  , 0.0  , 0.0 );
                        kernels[841] = compute_kernel(x,   0.0  , 0.0  , 0.0  , 0.0  , 0.0  , 0.0 );
                        kernels[842] = compute_kernel(x,   0.0  , 0.0  , 0.0  , 0.0  , 0.0  , 0.0 );
                        kernels[843] = compute_kernel(x,   0.0  , 0.0  , 0.0  , 0.0  , 0.0  , 0.0 );
                        kernels[844] = compute_kernel(x,   0.0  , 0.0  , 0.0  , 0.0  , 0.0  , 0.0 );
                        kernels[845] = compute_kernel(x,   0.0  , 0.0  , 0.0  , 0.0  , 0.0  , 0.0 );
                        kernels[846] = compute_kernel(x,   0.0  , 0.0  , 0.0  , 0.0  , 0.0  , 0.0 );
                        kernels[847] = compute_kernel(x,   0.0  , 0.0  , 0.0  , 0.0  , 0.0  , 0.0 );
                        kernels[848] = compute_kernel(x,   0.0  , 0.0  , 0.0  , 0.0  , 0.0  , 0.0 );
                        kernels[849] = compute_kernel(x,   0.0  , 0.0  , 0.0  , 0.0  , 0.0  , 0.0 );
                        kernels[850] = compute_kernel(x,   0.0  , 0.0  , 0.0  , 0.0  , 0.0  , 0.0 );
                        kernels[851] = compute_kernel(x,   0.0  , 0.0  , 0.0  , 0.0  , 0.0  , 0.0 );
                        kernels[852] = compute_kernel(x,   0.0  , 0.0  , 0.0  , 0.0  , 0.0  , 0.0 );
                        kernels[853] = compute_kernel(x,   0.0  , 0.0  , 0.0  , 0.0  , 0.0  , 0.0 );
                        kernels[854] = compute_kernel(x,   0.0  , 0.0  , 0.0  , 0.0  , 0.0  , 0.0 );
                        kernels[855] = compute_kernel(x,   0.0  , 0.0  , 0.0  , 0.0  , 0.0  , 0.0 );
                        kernels[856] = compute_kernel(x,   0.0  , 0.0  , 0.0  , 0.0  , 0.0  , 0.0 );
                        kernels[857] = compute_kernel(x,   0.0  , 0.0  , 0.0  , 0.0  , 0.0  , 0.0 );
                        kernels[858] = compute_kernel(x,   0.0  , 0.0  , 0.0  , 0.0  , 0.0  , 0.0 );
                        kernels[859] = compute_kernel(x,   0.0  , 0.0  , 0.0  , 0.0  , 0.0  , 0.0 );
                        kernels[860] = compute_kernel(x,   0.0  , 0.0  , 0.0  , 0.0  , 0.0  , 0.0 );
                        kernels[861] = compute_kernel(x,   0.0  , 0.0  , 0.0  , 0.0  , 0.0  , 0.0 );
                        kernels[862] = compute_kernel(x,   0.0  , 0.0  , 0.0  , 0.0  , 0.0  , 0.0 );
                        kernels[863] = compute_kernel(x,   0.0  , 0.0  , 0.0  , 0.0  , 0.0  , 0.0 );
                        kernels[864] = compute_kernel(x,   0.0  , 0.0  , 0.0  , 0.0  , 0.0  , 0.0 );
                        kernels[865] = compute_kernel(x,   0.0  , 0.0  , 0.0  , 0.0  , 0.0  , 0.0 );
                        kernels[866] = compute_kernel(x,   0.0  , 0.0  , 0.0  , 0.0  , 0.0  , 0.0 );
                        kernels[867] = compute_kernel(x,   0.0  , 0.0  , 0.0  , 0.0  , 0.0  , 0.0 );
                        kernels[868] = compute_kernel(x,   0.0  , 0.0  , 0.0  , 0.0  , 0.0  , 0.0 );
                        kernels[869] = compute_kernel(x,   0.0  , 0.0  , 0.0  , 0.0  , 0.0  , 0.0 );
                        kernels[870] = compute_kernel(x,   0.0  , 0.0  , 0.0  , 0.0  , 0.0  , 0.0 );
                        kernels[871] = compute_kernel(x,   0.0  , 0.0  , 0.0  , 0.0  , 0.0  , 0.0 );
                        kernels[872] = compute_kernel(x,   0.0  , 0.0  , 0.0  , 0.0  , 0.0  , 0.0 );
                        kernels[873] = compute_kernel(x,   0.0  , 0.0  , 0.0  , 0.0  , 0.0  , 0.0 );
                        kernels[874] = compute_kernel(x,   6.0  , 34.0  , 64.0  , 39.0  , 19.0  , 4.0 );
                        kernels[875] = compute_kernel(x,   0.0  , 0.0  , 0.0  , 0.0  , 0.0  , 0.0 );
                        kernels[876] = compute_kernel(x,   0.0  , 0.0  , 0.0  , 0.0  , 0.0  , 0.0 );
                        kernels[877] = compute_kernel(x,   0.0  , 0.0  , 0.0  , 0.0  , 0.0  , 0.0 );
                        kernels[878] = compute_kernel(x,   0.0  , 0.0  , 0.0  , 0.0  , 0.0  , 0.0 );
                        kernels[879] = compute_kernel(x,   0.0  , 0.0  , 0.0  , 0.0  , 0.0  , 0.0 );
                        kernels[880] = compute_kernel(x,   0.0  , 0.0  , 0.0  , 0.0  , 0.0  , 0.0 );
                        kernels[881] = compute_kernel(x,   0.0  , 0.0  , 0.0  , 0.0  , 0.0  , 0.0 );
                        kernels[882] = compute_kernel(x,   0.0  , 0.0  , 0.0  , 0.0  , 0.0  , 0.0 );
                        kernels[883] = compute_kernel(x,   0.0  , 0.0  , 0.0  , 0.0  , 0.0  , 0.0 );
                        kernels[884] = compute_kernel(x,   0.0  , 0.0  , 0.0  , 0.0  , 0.0  , 0.0 );
                        kernels[885] = compute_kernel(x,   0.0  , 0.0  , 0.0  , 0.0  , 0.0  , 0.0 );
                        kernels[886] = compute_kernel(x,   0.0  , 0.0  , 0.0  , 0.0  , 0.0  , 0.0 );
                        kernels[887] = compute_kernel(x,   0.0  , 0.0  , 0.0  , 0.0  , 0.0  , 0.0 );
                        kernels[888] = compute_kernel(x,   0.0  , 0.0  , 0.0  , 0.0  , 0.0  , 0.0 );
                        kernels[889] = compute_kernel(x,   0.0  , 0.0  , 0.0  , 0.0  , 0.0  , 0.0 );
                        kernels[890] = compute_kernel(x,   0.0  , 0.0  , 0.0  , 0.0  , 0.0  , 0.0 );
                        kernels[891] = compute_kernel(x,   0.0  , 0.0  , 0.0  , 0.0  , 0.0  , 0.0 );
                        kernels[892] = compute_kernel(x,   0.0  , 0.0  , 0.0  , 0.0  , 0.0  , 0.0 );
                        kernels[893] = compute_kernel(x,   0.0  , 0.0  , 0.0  , 0.0  , 0.0  , 0.0 );
                        kernels[894] = compute_kernel(x,   0.0  , 0.0  , 0.0  , 0.0  , 0.0  , 0.0 );
                        kernels[895] = compute_kernel(x,   0.0  , 0.0  , 0.0  , 0.0  , 0.0  , 0.0 );
                        kernels[896] = compute_kernel(x,   0.0  , 0.0  , 0.0  , 0.0  , 0.0  , 0.0 );
                        kernels[897] = compute_kernel(x,   0.0  , 0.0  , 0.0  , 0.0  , 0.0  , 0.0 );
                        kernels[898] = compute_kernel(x,   0.0  , 0.0  , 0.0  , 0.0  , 0.0  , 0.0 );
                        kernels[899] = compute_kernel(x,   0.0  , 0.0  , 0.0  , 0.0  , 0.0  , 0.0 );
                        kernels[900] = compute_kernel(x,   0.0  , 0.0  , 0.0  , 0.0  , 0.0  , 0.0 );
                        kernels[901] = compute_kernel(x,   0.0  , 0.0  , 0.0  , 0.0  , 0.0  , 0.0 );
                        kernels[902] = compute_kernel(x,   0.0  , 0.0  , 0.0  , 0.0  , 0.0  , 0.0 );
                        kernels[903] = compute_kernel(x,   0.0  , 0.0  , 0.0  , 0.0  , 0.0  , 0.0 );
                        kernels[904] = compute_kernel(x,   0.0  , 0.0  , 0.0  , 0.0  , 0.0  , 0.0 );
                        kernels[905] = compute_kernel(x,   0.0  , 0.0  , 0.0  , 0.0  , 0.0  , 0.0 );
                        kernels[906] = compute_kernel(x,   0.0  , 0.0  , 0.0  , 0.0  , 0.0  , 0.0 );
                        kernels[907] = compute_kernel(x,   0.0  , 0.0  , 0.0  , 0.0  , 0.0  , 0.0 );
                        kernels[908] = compute_kernel(x,   0.0  , 0.0  , 0.0  , 0.0  , 0.0  , 0.0 );
                        kernels[909] = compute_kernel(x,   0.0  , 0.0  , 0.0  , 0.0  , 0.0  , 0.0 );
                        kernels[910] = compute_kernel(x,   0.0  , 0.0  , 0.0  , 0.0  , 0.0  , 0.0 );
                        kernels[911] = compute_kernel(x,   0.0  , 0.0  , 0.0  , 0.0  , 0.0  , 0.0 );
                        kernels[912] = compute_kernel(x,   0.0  , 0.0  , 0.0  , 0.0  , 0.0  , 0.0 );
                        kernels[913] = compute_kernel(x,   0.0  , 0.0  , 0.0  , 0.0  , 0.0  , 0.0 );
                        kernels[914] = compute_kernel(x,   0.0  , 0.0  , 0.0  , 0.0  , 0.0  , 0.0 );
                        kernels[915] = compute_kernel(x,   0.0  , 0.0  , 0.0  , 0.0  , 0.0  , 0.0 );
                        kernels[916] = compute_kernel(x,   0.0  , 0.0  , 0.0  , 0.0  , 0.0  , 0.0 );
                        kernels[917] = compute_kernel(x,   0.0  , 0.0  , 0.0  , 0.0  , 0.0  , 0.0 );
                        kernels[918] = compute_kernel(x,   0.0  , 0.0  , 0.0  , 0.0  , 0.0  , 0.0 );
                        kernels[919] = compute_kernel(x,   0.0  , 0.0  , 0.0  , 0.0  , 0.0  , 0.0 );
                        kernels[920] = compute_kernel(x,   10.0  , 32.0  , 48.0  , 50.0  , 21.0  , 3.0 );
                        kernels[921] = compute_kernel(x,   0.0  , 0.0  , 0.0  , 0.0  , 0.0  , 0.0 );
                        kernels[922] = compute_kernel(x,   0.0  , 0.0  , 0.0  , 0.0  , 0.0  , 0.0 );
                        kernels[923] = compute_kernel(x,   0.0  , 0.0  , 0.0  , 0.0  , 0.0  , 0.0 );
                        kernels[924] = compute_kernel(x,   0.0  , 0.0  , 0.0  , 0.0  , 0.0  , 0.0 );
                        kernels[925] = compute_kernel(x,   0.0  , 0.0  , 0.0  , 0.0  , 0.0  , 0.0 );
                        kernels[926] = compute_kernel(x,   0.0  , 0.0  , 0.0  , 0.0  , 0.0  , 0.0 );
                        kernels[927] = compute_kernel(x,   0.0  , 0.0  , 0.0  , 0.0  , 0.0  , 0.0 );
                        kernels[928] = compute_kernel(x,   0.0  , 0.0  , 0.0  , 0.0  , 0.0  , 0.0 );
                        kernels[929] = compute_kernel(x,   0.0  , 0.0  , 0.0  , 0.0  , 0.0  , 0.0 );
                        kernels[930] = compute_kernel(x,   0.0  , 0.0  , 0.0  , 0.0  , 0.0  , 0.0 );
                        kernels[931] = compute_kernel(x,   0.0  , 0.0  , 0.0  , 0.0  , 0.0  , 0.0 );
                        kernels[932] = compute_kernel(x,   0.0  , 0.0  , 0.0  , 0.0  , 0.0  , 0.0 );
                        kernels[933] = compute_kernel(x,   0.0  , 0.0  , 0.0  , 0.0  , 0.0  , 0.0 );
                        kernels[934] = compute_kernel(x,   0.0  , 0.0  , 0.0  , 0.0  , 0.0  , 0.0 );
                        kernels[935] = compute_kernel(x,   0.0  , 0.0  , 0.0  , 0.0  , 0.0  , 0.0 );
                        kernels[936] = compute_kernel(x,   0.0  , 0.0  , 0.0  , 0.0  , 0.0  , 0.0 );
                        kernels[937] = compute_kernel(x,   0.0  , 0.0  , 0.0  , 0.0  , 0.0  , 0.0 );
                        kernels[938] = compute_kernel(x,   0.0  , 0.0  , 0.0  , 0.0  , 0.0  , 0.0 );
                        kernels[939] = compute_kernel(x,   0.0  , 0.0  , 0.0  , 0.0  , 0.0  , 0.0 );
                        kernels[940] = compute_kernel(x,   0.0  , 0.0  , 0.0  , 0.0  , 0.0  , 0.0 );
                        kernels[941] = compute_kernel(x,   0.0  , 0.0  , 0.0  , 0.0  , 0.0  , 0.0 );
                        kernels[942] = compute_kernel(x,   0.0  , 0.0  , 0.0  , 0.0  , 0.0  , 0.0 );
                        kernels[943] = compute_kernel(x,   0.0  , 0.0  , 0.0  , 0.0  , 0.0  , 0.0 );
                        kernels[944] = compute_kernel(x,   0.0  , 0.0  , 0.0  , 0.0  , 0.0  , 0.0 );
                        kernels[945] = compute_kernel(x,   0.0  , 0.0  , 0.0  , 0.0  , 0.0  , 0.0 );
                        kernels[946] = compute_kernel(x,   0.0  , 0.0  , 0.0  , 0.0  , 0.0  , 0.0 );
                        kernels[947] = compute_kernel(x,   0.0  , 0.0  , 0.0  , 0.0  , 0.0  , 0.0 );
                        kernels[948] = compute_kernel(x,   0.0  , 0.0  , 0.0  , 0.0  , 0.0  , 0.0 );
                        kernels[949] = compute_kernel(x,   0.0  , 0.0  , 0.0  , 0.0  , 0.0  , 0.0 );
                        kernels[950] = compute_kernel(x,   0.0  , 0.0  , 0.0  , 0.0  , 0.0  , 0.0 );
                        kernels[951] = compute_kernel(x,   0.0  , 0.0  , 0.0  , 0.0  , 0.0  , 0.0 );
                        kernels[952] = compute_kernel(x,   0.0  , 0.0  , 0.0  , 0.0  , 0.0  , 0.0 );
                        kernels[953] = compute_kernel(x,   0.0  , 0.0  , 0.0  , 0.0  , 0.0  , 0.0 );
                        kernels[954] = compute_kernel(x,   0.0  , 0.0  , 0.0  , 0.0  , 0.0  , 0.0 );
                        kernels[955] = compute_kernel(x,   0.0  , 0.0  , 0.0  , 0.0  , 0.0  , 0.0 );
                        kernels[956] = compute_kernel(x,   0.0  , 0.0  , 0.0  , 0.0  , 0.0  , 0.0 );
                        kernels[957] = compute_kernel(x,   0.0  , 0.0  , 0.0  , 0.0  , 0.0  , 0.0 );
                        kernels[958] = compute_kernel(x,   0.0  , 0.0  , 0.0  , 0.0  , 0.0  , 0.0 );
                        kernels[959] = compute_kernel(x,   0.0  , 0.0  , 0.0  , 0.0  , 0.0  , 0.0 );
                        kernels[960] = compute_kernel(x,   0.0  , 0.0  , 0.0  , 0.0  , 0.0  , 0.0 );
                        kernels[961] = compute_kernel(x,   0.0  , 0.0  , 0.0  , 0.0  , 0.0  , 0.0 );
                        kernels[962] = compute_kernel(x,   0.0  , 0.0  , 0.0  , 0.0  , 0.0  , 0.0 );
                        kernels[963] = compute_kernel(x,   0.0  , 0.0  , 0.0  , 0.0  , 0.0  , 0.0 );
                        kernels[964] = compute_kernel(x,   0.0  , 0.0  , 0.0  , 0.0  , 0.0  , 0.0 );
                        kernels[965] = compute_kernel(x,   0.0  , 0.0  , 0.0  , 0.0  , 0.0  , 0.0 );
                        kernels[966] = compute_kernel(x,   5.0  , 21.0  , 50.0  , 39.0  , 21.0  , 4.0 );
                        kernels[967] = compute_kernel(x,   0.0  , 0.0  , 0.0  , 0.0  , 0.0  , 0.0 );
                        kernels[968] = compute_kernel(x,   0.0  , 0.0  , 0.0  , 0.0  , 0.0  , 0.0 );
                        kernels[969] = compute_kernel(x,   0.0  , 0.0  , 0.0  , 0.0  , 0.0  , 0.0 );
                        kernels[970] = compute_kernel(x,   0.0  , 0.0  , 0.0  , 0.0  , 0.0  , 0.0 );
                        kernels[971] = compute_kernel(x,   0.0  , 0.0  , 0.0  , 0.0  , 0.0  , 0.0 );
                        kernels[972] = compute_kernel(x,   0.0  , 0.0  , 0.0  , 0.0  , 0.0  , 0.0 );
                        kernels[973] = compute_kernel(x,   0.0  , 0.0  , 0.0  , 0.0  , 0.0  , 0.0 );
                        kernels[974] = compute_kernel(x,   0.0  , 0.0  , 0.0  , 0.0  , 0.0  , 0.0 );
                        kernels[975] = compute_kernel(x,   0.0  , 0.0  , 0.0  , 0.0  , 0.0  , 0.0 );
                        kernels[976] = compute_kernel(x,   0.0  , 0.0  , 0.0  , 0.0  , 0.0  , 0.0 );
                        kernels[977] = compute_kernel(x,   0.0  , 0.0  , 0.0  , 0.0  , 0.0  , 0.0 );
                        kernels[978] = compute_kernel(x,   0.0  , 0.0  , 0.0  , 0.0  , 0.0  , 0.0 );
                        kernels[979] = compute_kernel(x,   0.0  , 0.0  , 0.0  , 0.0  , 0.0  , 0.0 );
                        kernels[980] = compute_kernel(x,   0.0  , 0.0  , 0.0  , 0.0  , 0.0  , 0.0 );
                        kernels[981] = compute_kernel(x,   0.0  , 0.0  , 0.0  , 0.0  , 0.0  , 0.0 );
                        kernels[982] = compute_kernel(x,   0.0  , 0.0  , 0.0  , 0.0  , 0.0  , 0.0 );
                        kernels[983] = compute_kernel(x,   0.0  , 0.0  , 0.0  , 0.0  , 0.0  , 0.0 );
                        kernels[984] = compute_kernel(x,   0.0  , 0.0  , 0.0  , 0.0  , 0.0  , 0.0 );
                        kernels[985] = compute_kernel(x,   0.0  , 0.0  , 0.0  , 0.0  , 0.0  , 0.0 );
